641 50
wearing -1.1059 0.40883 -0.75338 -0.72444 1.03 0.045399 -0.63381 -0.79198 -0.34847 -0.824 0.43937 -0.56107 -0.066033 0.50741 0.27729 0.34504 -1.1487 0.078797 -0.39566 -1.4519 -0.78454 1.1854 0.050496 -0.26502 -1.127 -1.8098 -0.89228 1.4199 0.51537 -1.1537 1.5758 0.88734 -0.68114 0.014502 0.266 0.92511 0.48301 -0.11315 -0.92386 -0.11854 0.035215 0.72933 0.15398 0.46788 1.3891 -1.4336 -0.24537 -1.3055 -0.057538 -0.475
near 1.2142 0.56772 0.10257 -0.14835 0.090435 -0.90865 -0.79889 0.7086 0.23943 -0.91254 -0.47738 -1.5754 0.10514 -0.90236 -0.61902 0.64785 0.41888 0.55766 -1.5263 0.49694 0.3014 0.23632 -0.53703 0.45325 -0.053428 -1.7412 0.12347 1.3038 0.58956 -0.38383 2.8696 -0.70768 0.14676 -0.21459 0.656 -0.083593 -0.084173 -0.24683 0.78961 0.90983 -0.31793 0.17819 0.28379 -0.46633 -0.024113 0.043425 0.14777 -0.95912 0.211 -0.8970
town 0.70336 0.30795 -0.63547 -0.41419 0.23853 -0.43643 -1.1645 0.47236 -0.51754 -0.79783 -0.61695 -1.6864 0.53039 -1.6934 -0.2141 0.34471 0.81328 0.88944 -0.83134 0.75991 0.30941 0.51458 -0.4762 1.1938 -0.26916 -1.4365 -0.3018 0.87186 0.43065 -0.39923 2.9028 -0.25505 -0.0069049 -0.20207 0.97326 0.31458 -0.27545 -0.27267 0.35836 0.55632 -0.22308 0.50716 -0.16774 -0.78545 -0.70137 0.097668 -0.65205 -0.79044 0.48599 -0.780
close 0.39621 0.15996 0.46712 0.18459 1.1826 -0.29844 -0.44587 0.13879 -0.79038 -0.21838 -0.33809 -0.68331 -0.37921 -0.11752 0.042039 0.48018 -0.012653 -0.45736 -0.77084 -0.047438 0.31252 0.5868 0.11256 -0.25544 0.13935 -1.3885 0.66674 0.28422 0.14652 0.21721 3.2838 -0.064245 0.087545 0.059236 0.18729 -0.7151 -0.45676 0.42607 -0.075389 -0.21992 -0.12417 0.12843 0.33174 0.089882 -0.15063 -0.08294 -0.066774 -0.19275 0.24453 -0.2893
diving -0.57634 0.70644 -0.56982 1.0437 -0.55675 -0.52481 -0.54289 0.33579 1.3688 -0.3322 0.69223 0.63262 -0.26242 1.2438 0.03116 -0.34367 0.65109 -0.066504 -2.0923 -0.69657 -0.20008 0.395 -0.090032 -0.44842 0.82122 -0.74454 0.27263 0.11526 -0.072583 -0.27179 1.5725 0.5362 0.34277 0.34013 0.019889 0.906 0.14339 1.0387 -0.03175 -0.044028 0.06649 -0.021635 1.0325 1.0576 0.45831 -0.94253 0.8307 -0.50133 0.91389 -0.7822
she 0.060382 0.37821 -0.75142 -0.72159 0.58648 0.79126 -0.72947 0.68248 -0.12999 -0.22988 0.11595 0.22427 -0.44679 -0.11515 1.0334 -0.088019 -0.78531 0.34305 -0.11457 -0.11905 0.45883 1.6333 0.68546 0.22308 1.0099 -2.6332 -0.52128 0.25665 0.023468 -0.82616 3.1084 0.27219 -0.29227 -0.47259 -0.12297 -0.13545 0.11192 0.86438 0.33121 -0.96616 -0.044785 -0.06674 0.0030367 -0.33905 0.017784 -0.58499 -0.005014 -1.257 -0.060723 0.4224
gate 0.39943 0.92457 0.4354 0.050842 0.74144 -0.64553 0.030811 0.27328 0.12789 -0.61508 -0.13984 -0.35889 -0.63598 0.29003 -0.31856 0.8862 0.43043 0.20614 -0.95662 -0.19861 0.99297 -0.37111 -1.1556 0.30762 0.094729 -1.0382 -0.1817 0.6089 0.026306 -1.028 1.7055 -0.25317 0.36786 0.2815 -0.029977 0.13704 1.0567 -0.46758 -0.22703 0.61702 0.080172 -0.16002 -0.37312 0.20701 -0.152 -0.56558 0.23157 -1.4759 0.25872 -1.00
mid 0.0058217 -0.43063 -0.089438 -0.63723 -0.43948 -0.55747 -1.0553 0.05163 -0.10681 -0.14766 -0.10383 -0.51172 -0.46569 0.49213 0.083754 0.6459 -0.5953 -0.46574 -1.1498 0.15849 0.49551 -0.073476 0.37912 0.15914 -0.37936 -0.88849 0.011781 0.33104 -0.13453 1.0319 2.8609 -0.032454 0.10953 0.69009 1.1003 -0.48362 -0.0070848 0.20943 -0.18977 -0.19658 -0.96414 0.13422 -0.16668 -0.13247 -0.14899 0.38578 0.66641 -0.10915 -0.14718 -0.41
turning 0.044296 -0.23973 0.16029 -0.60365 0.12206 0.092614 -0.26589 0.074379 0.097882 0.21535 -0.46887 -0.2741 -0.50545 0.41382 -0.055352 0.081204 0.31128 0.13523 -0.21687 -0.44322 0.37684 0.10671 0.19485 0.11973 0.3629 -1.4945 -0.058136 0.54506 0.84454 -0.092131 2.6573 0.33753 -0.1072 -0.34016 -0.30716 0.058283 -0.57962 0.39557 -0.17329 -0.30388 -0.43885 0.037293 -0.10645 0.1553 0.011429 0.17216 0.28151 -0.51702 -0.090612 -0.3092
content -0.34826 0.43954 0.25268 0.46301 -0.080105 0.33141 -0.022085 -1.3066 0.62273 1.6682 0.26044 0.48506 0.45069 -0.25339 0.34362 0.56544 0.11985 -0.098132 0.73435 -0.85473 0.92271 0.175 1.3316 0.91392 -0.13655 -0.3727 -0.095069 0.29656 0.63772 -0.006756 3.2299 -0.56239 -0.057319 -1.4156 -0.19649 0.16131 -0.068274 -0.026073 -0.77183 -0.50726 1.5729 -0.265 -0.2226 0.68299 -0.30086 0.19901 0.060389 0.63221 0.21675 0.4619
vehicle 0.76635 -0.4642 1.5398 -0.072722 0.25468 0.47589 -0.68325 -0.69972 0.98951 -0.52045 0.65583 -0.68863 -0.69973 0.23702 -0.178 0.090046 -0.42554 1.3735 -0.63329 -1.5985 0.44457 0.096731 -1.0718 0.070542 0.16615 -1.2411 -0.19775 0.60335 1.1504 0.26983 2.4684 -0.13064 -0.4938 -0.32927 1.1078 0.52485 0.67595 -0.46873 -0.47992 0.43717 -0.1786 -0.10588 0.41584 -0.85348 -0.045738 -1.1811 0.16451 -0.022746 1.04 -0.0250
gears -0.45154 -1.1722 0.61764 0.30212 -0.68831 0.70125 0.44957 -0.44119 -0.091831 -0.83056 0.43123 -0.060546 -0.74152 0.98752 -0.7505 0.82308 -0.54274 0.4584 0.12949 -1.1183 0.50725 -0.77503 -0.017515 0.45366 0.80677 -0.27925 0.10767 0.02258 0.84295 0.051138 1.308 0.77562 -0.58336 0.33697 0.24693 0.19331 -0.49269 0.20273 -0.58035 0.38536 -0.58528 0.12104 -0.77974 -0.22487 -0.44792 0.10538 1.7352 -0.36275 -0.12116 -0.1716
bottle 0.20635 0.2606 -0.094723 -0.73396 0.72598 0.5099 -0.39352 -0.45703 0.49335 1.3791 0.10285 0.14997 0.41506 -0.19039 1.0527 0.16514 -0.16717 0.8092 -0.97394 -1.753 0.34632 -0.053064 0.33046 -0.021036 -0.78655 -1.0088 -0.30341 1.6766 0.90808 -0.39309 1.2131 0.21588 -0.87778 1.3756 0.57432 0.35111 0.39926 0.33184 1.2035 -0.21218 1.2316 0.58557 -0.40531 0.37376 0.16584 0.56948 -0.13898 -0.29062 0.56082 -0.9411
repeatedly 0.30693 -0.87848 0.32975 -0.38582 -0.1561 0.39535 -0.38763 0.60227 -0.40453 -0.056316 -0.11612 -0.10166 -0.8091 -0.24009 0.18963 0.26617 -0.49168 -0.57283 0.42803 -0.3422 -0.028656 0.74317 0.60801 -0.51572 0.27159 -2.3662 0.70825 0.70626 -0.29911 -0.44739 2.0752 -0.039275 -0.27712 -0.72162 -0.52737 -0.14653 0.12906 -0.18529 -0.94275 0.060621 -0.067691 0.49895 -0.21098 -0.09996 0.52403 -0.5522 -0.81524 0.46033 -0.4119 -0.6433
note -0.55154 0.99557 0.23948 -0.10123 1.0363 -0.25367 -0.12801 -0.13142 -0.83114 0.20578 -0.58668 0.3688 0.19686 -0.084009 0.53538 -0.18119 -0.88036 -1.1572 -0.081893 -0.62331 0.2855 -0.1256 0.67135 0.00033328 0.43185 -0.87454 -0.62022 0.40737 0.19433 -0.13466 2.6954 -0.55108 0.44264 0.021607 0.42635 -0.83792 0.25346 -0.49401 -0.055256 -0.45288 0.79365 -0.055627 0.069119 -0.069604 0.37779 0.38911 0.58881 1.0513 0.48167 0.2164
dark 0.33243 0.94777 -0.799 -0.46123 1.0269 0.35119 -0.068218 -0.6871 -0.51316 -0.087043 -0.16264 0.29358 -0.08334 0.93804 0.12991 0.26202 -0.17056 -0.14422 -0.9291 -1.1021 -0.46072 0.62572 0.97887 0.046652 -0.531 -0.64159 -1.1257 1.8136 1.158 0.025825 2.3386 -0.33209 0.052015 -0.75279 -0.064086 0.43551 -0.69092 -0.65299 -0.28649 -1.0799 -0.019354 0.21862 -0.0052941 -0.10232 0.21368 0.093932 0.66609 -1.5721 -0.21456 -0.5235
contain 0.93705 0.1407 0.51769 -0.19532 0.032971 0.73608 0.26005 -0.78162 0.46867 0.77544 -0.21495 0.03305 0.72603 -0.17836 0.54566 0.36255 0.19744 -0.58394 0.1494 -0.64607 -0.098219 -0.87771 1.4673 -0.17309 -0.43014 -0.43928 -0.49015 0.4334 0.78499 -0.12089 2.9242 -0.57546 0.13946 -0.87996 0.33194 0.94115 0.06565 -0.38456 -0.1571 0.16704 0.23105 -0.0039463 0.52081 0.39353 0.79819 1.0423 -0.017564 0.61698 -0.11723 -1.085
bus 0.84772 0.070253 0.96791 -0.27164 -0.37617 0.31978 -1.3108 0.091093 0.59919 -0.90217 -0.050876 -0.83886 -0.61596 0.29642 -0.42189 -0.21969 -0.94006 1.2221 -0.66526 -0.57745 0.76126 0.51459 -0.88565 1.5135 0.42326 -1.2947 0.45522 0.67073 0.80188 -0.65449 2.4117 0.62445 -0.046631 0.37524 1.0103 0.25259 1.0913 -0.79427 -0.17027 1.4866 -0.24077 0.021904 -0.01603 -0.44319 -0.13914 0.013311 -0.49432 -0.57696 1.1997 -0.3970
view 0.56616 0.67167 -0.19278 -0.37824 0.6459 -0.4243 -0.38606 -0.80468 -0.34442 0.1913 -0.48999 -0.21038 -0.016231 -0.017078 -0.4217 0.55147 0.41608 -0.61066 0.035416 -0.61576 -0.097599 0.51837 -0.47337 -0.071652 0.5492 -1.3355 -0.7694 0.5427 0.0070481 0.086856 2.8757 -0.40083 -0.10879 -1.3435 -0.38977 -0.83612 -0.31908 -0.045061 -0.91621 -0.36012 0.12146 -0.1824 0.19599 0.57707 -0.28109 0.064966 0.0183 0.097139 0.19157 -0.02345
father 0.095496 0.70418 -0.40777 -0.80844 1.256 0.77071 -1.0695 0.76847 -0.87813 -0.0080954 0.43884 1.0476 -0.45071 -0.58931 0.83246 -0.038442 -0.73533 0.26389 0.12617 0.57623 -0.23866 1.0922 -0.3367 0.081537 0.84798 -2.4795 -0.40351 -0.84087 0.12034 0.29074 1.9711 -0.50886 -0.45977 -0.13617 0.55613 0.22924 -0.18947 0.43544 0.65151 0.043537 -0.1162 0.72196 -0.66163 -0.17272 0.27367 -0.28169 -0.82025 -1.5089 0.052787 -0.03557
pair 0.063875 0.55637 0.18738 0.58694 0.64972 0.95583 -0.41793 0.091337 -0.5477 -0.17389 0.26867 0.093818 -0.70227 0.76798 0.13179 -0.33954 -0.16919 -0.48271 -0.76527 -1.0036 -0.33894 0.35679 0.36408 0.089637 -0.15045 -0.89578 0.1577 0.048195 -0.019117 -1.0416 2.3934 0.48807 0.26698 0.33889 0.86442 0.54951 0.32467 0.61661 -0.63074 -0.26122 0.26828 0.32085 0.49971 0.19494 0.65466 -0.61771 0.23171 -0.75199 -0.11374 -0.6994
front 0.021786 0.26398 0.64475 -0.37576 0.44165 -0.30413 -0.53885 -0.22087 -0.43253 -1.1642 -0.34724 -0.98567 -1.0723 0.51097 -0.60139 -0.11341 -0.10118 -0.06655 -0.23432 -1.0964 -0.80516 0.19725 -0.30023 0.11906 -0.23811 -1.3668 -0.1198 1.0927 -0.11638 -0.15173 3.2787 0.33426 -0.54537 0.24694 -0.64439 0.4744 0.36013 -0.07902 -0.30955 -0.11076 0.47378 0.36476 -0.79684 -0.21836 -0.20472 -0.11582 -0.25167 -0.78021 -0.018188 -1.006
saddle -0.38423 0.41518 -0.19897 -1.0674 -0.96279 0.73955 -0.42178 -0.16585 0.46265 -1.1711 -0.12306 0.25885 -0.11476 -0.3652 -0.83055 0.47105 0.42219 0.94638 -0.32278 -1.0333 -0.38558 -0.34261 -0.16195 0.28901 0.044616 -0.83547 -0.6418 1.1623 0.13056 -0.45321 0.50089 0.54074 -0.053308 1.5409 0.40424 -0.18054 -0.025736 0.18762 0.39156 -0.58437 -0.032942 -0.43177 -0.073415 0.69899 -0.13866 -0.71961 0.55425 -0.76634 0.25535 -0.4494
old -0.48533 0.98378 -0.29031 -0.33076 0.7467 0.59922 -1.4261 0.084897 -0.25334 -0.10804 -0.073621 -0.24042 -0.60009 0.27719 0.61283 0.077262 -0.47997 0.50699 0.1302 0.66519 -0.84582 0.94113 -1.0953 0.40358 0.16514 -2.5206 -0.16821 0.20541 0.20474 0.07438 2.7209 -0.70897 -0.049539 0.96305 0.72107 0.55294 -0.13857 0.59796 0.58361 -0.42162 -0.21735 0.36125 0.18277 0.33058 0.58751 0.1003 -0.16219 -0.95943 0.03837 -0.7330
dropping -0.53453 -0.61732 0.74097 -0.36618 0.2576 0.32101 -0.31884 -0.11388 -0.070208 0.1886 -0.065767 -0.62315 -0.16693 0.026618 0.34492 0.024039 -0.68136 -0.49207 -1.1256 -0.5512 0.26758 -0.063138 0.38099 -0.62241 -0.11983 -0.96946 0.31677 0.55962 0.77302 -0.053618 2.2707 0.4162 0.36279 0.44844 0.20152 -0.24985 0.098324 0.11268 -0.084526 -0.52838 -0.17502 -0.11777 0.49896 0.17983 0.091686 -0.17385 0.52007 0.18647 0.19231 -0.4606
green -0.5767 0.86953 -0.49108 -0.1078 0.65377 0.32548 -1.326 -1.0114 -0.20658 -0.79937 -0.41455 0.084769 0.25426 -0.10999 -0.64696 0.17882 0.68277 -0.019661 -0.59745 -1.0414 -0.55979 -0.18503 0.49271 -0.53623 -0.63925 -0.91267 0.15709 1.3784 0.45686 -0.76237 2.5792 -0.22079 -0.59114 -0.17395 0.27835 0.30161 -0.12137 0.21278 0.23306 -0.74012 0.12318 -0.028115 -0.421 -0.60167 0.71802 0.19434 -0.11682 -1.1335 0.49009 -0.02049
where 0.69237 0.44971 -0.20293 -0.16783 0.30503 -0.4876 -0.69028 0.18163 -0.16295 -0.47477 -0.0033044 -0.65208 -0.10148 -0.5751 0.30189 0.35639 0.28629 0.47367 -0.71456 -0.018865 0.17096 0.27097 0.19071 0.76326 -0.17586 -1.7981 -0.33722 0.27325 0.054095 -0.5235 3.4908 -0.027619 -0.23949 -0.86976 0.26612 0.087956 -0.19885 0.18534 0.4325 0.41208 -0.3919 0.22857 0.073443 0.10901 -0.23495 0.16082 -0.016364 -1.0347 -0.2416 -0.486
going 0.014212 -0.18011 0.23478 -0.25038 0.26816 -0.54887 -0.74436 0.52034 -0.28571 0.15376 -0.55916 0.10423 -1.0179 0.010634 0.9528 0.51811 0.78624 -0.20099 -0.28816 -0.65735 0.018307 0.3193 0.34456 0.26516 0.72061 -1.8699 -0.25384 -0.0030076 1.2203 -0.92019 3.4057 1.1351 -0.58406 -0.12611 -0.035017 -0.29941 0.031475 0.33883 0.3891 -0.42999 -0.85264 -0.31751 -0.089163 0.53176 0.043773 0.060998 0.24762 -0.16679 0.061595 0.6992
via 1.1146 0.37671 0.29866 0.55861 -0.83366 -0.16061 -0.51707 0.25843 0.65851 0.2635 0.6075 0.12586 0.24887 -0.4526 -0.61666 0.25657 -0.60918 -0.11234 -0.36517 0.31766 1.3268 -0.5002 0.40557 1.2895 0.19009 -1.1013 0.96339 0.12693 -0.048778 -1.0494 2.8464 -0.078149 -0.027234 -0.67931 -0.18209 -0.2473 0.30957 0.20335 -0.51751 0.31455 1.3482 -0.28714 -0.31308 -0.39833 -0.7667 -0.15003 0.5416 -0.72219 0.29072 -0.4894
parking 0.53915 0.91581 0.75845 -0.10984 -0.018503 -0.61714 -0.86883 -0.18386 0.66501 -0.64682 -0.89808 -0.77883 -0.24535 -0.1651 0.55753 0.33807 0.0011306 0.85663 0.1164 -1.5094 0.75953 -0.081263 -1.4742 0.78307 -0.72447 -0.59139 0.75973 1.2088 1.3512 -0.45923 2.1195 0.33677 0.23301 -0.5239 0.25091 0.83367 1.0234 -0.3125 0.16033 0.75281 0.097684 0.094171 0.025998 1.3686 -0.57039 -0.84546 -0.36493 -0.52046 0.5724 0.06248
blowing -0.02176 -0.32544 0.39501 -0.42815 -0.50651 -0.014594 0.0077507 0.66546 -0.21505 0.62357 -0.58845 -0.52728 -0.3008 0.97364 -0.636 -0.3466 0.27676 0.14981 -0.99531 -1.0118 0.048138 0.54673 0.38349 -0.45331 0.6389 -0.8093 0.079878 1.2039 1.457 -0.70116 1.5991 0.31486 -0.0087458 0.1334 -0.60286 0.24531 0.16007 -0.48442 0.46694 0.50978 -0.29455 0.0063887 0.16197 -0.078986 0.57263 0.61416 -0.09035 -0.63757 0.087318 -0.7337
metal -0.97467 0.17701 0.55721 -0.061392 0.13516 0.90557 0.11298 -0.083015 -0.19704 0.60241 0.81914 -0.039332 -0.18959 1.6839 -0.40624 0.55594 0.44263 0.16115 -0.35466 -1.6592 1.3298 -0.51587 0.045646 -0.38681 -0.72316 -0.34138 -1.1071 0.87466 0.74086 -0.47313 2.8302 -1.3763 0.85465 0.16082 -0.00087585 0.92728 0.94742 -0.37689 0.58434 -0.026297 0.31892 -0.47993 0.17084 -0.3404 1.3925 0.00089684 -0.042405 -0.75443 -0.27104 -1.445
path 0.83774 0.71927 0.47703 -0.52252 0.04313 2.1685e-05 -0.18052 -0.19659 0.62848 0.13682 -0.30449 -0.20535 -0.70917 0.4595 -0.98285 0.00075514 0.77896 -0.45184 0.23708 -0.28019 -0.75704 -0.0091655 -0.35427 0.20747 1.3327 -1.0725 0.083876 0.39963 0.81129 0.10316 2.7222 -0.32087 -0.89388 -0.27123 -0.025808 -0.78975 -0.39769 0.063047 -0.73538 0.28573 -0.72021 -0.55957 -0.14333 0.03404 -0.58382 -0.62151 0.82783 -0.78782 0.63648 -0.7329
rear 0.2811 0.10664 1.1058 -0.69639 0.24007 0.6106 0.27725 -0.55409 -0.0057363 -2.0282 0.24282 0.26163 -1.1818 0.83358 -1.0849 0.59039 -0.41805 0.28046 -0.1892 -2.2238 -0.56355 -0.32497 -0.77194 0.011766 -0.3288 -0.57757 0.37462 1.2112 0.52736 0.85599 2.202 -0.1659 0.086848 0.13989 0.6932 0.68406 1.1776 -0.32214 -0.34924 0.15678 0.59968 0.76776 -0.37992 -0.36465 -0.61533 -0.091318 0.47386 -1.3379 0.0072277 0.1794
low -0.25589 0.47538 0.75416 -1.0972 -0.037572 0.12092 -0.10886 -0.45542 0.31374 0.79293 0.20958 -0.42304 0.63525 -0.0046922 -0.20428 0.4947 -0.081891 -0.30669 -0.60734 -0.62661 -0.20518 -0.22546 0.15236 -0.2035 -0.26185 -1.312 0.45509 0.65863 0.77804 1.3161 3.7916 0.24891 0.94249 0.1129 0.83074 -0.29118 -0.2823 0.39475 0.46752 -0.75958 -0.36768 0.63075 0.43537 0.41162 0.056963 -0.38209 0.63026 -0.13501 0.26791 0.2717
blow 0.59969 -0.48207 0.30113 -0.025509 -0.26972 0.50311 0.26912 1.0166 0.17372 0.66521 -0.49831 0.0053141 -1.0287 0.85662 -0.20216 0.11312 0.42186 -0.37328 -0.871 -0.34 -0.088045 0.020018 -0.30749 -0.66853 -0.084478 -1.9828 -0.34447 0.50819 1.1069 0.11125 2.0516 0.59279 -0.30739 0.17587 -0.201 0.34641 0.15699 -0.25805 0.16339 -0.37744 -0.49913 0.3837 -0.084339 -0.45099 0.71708 0.73254 -0.55784 0.025225 0.61902 -0.4994
feet 0.60598 0.62116 1.3902 -1.0112 0.7298 -0.041648 0.078382 -0.51417 0.32828 -0.82559 -0.67751 -0.69747 0.045403 0.19579 0.31423 0.02081 0.22341 0.56527 -1.4222 -1.2512 -0.78603 0.27384 0.57691 -1.0451 0.72332 -0.56122 0.45171 1.2926 0.27328 -0.64863 3.0811 -0.17607 0.63082 1.0917 -0.27365 0.023336 0.43271 0.25183 0.78445 -0.037174 -0.38909 -0.12346 0.88677 0.82725 -0.78608 -0.26048 0.69053 -1.3792 -1.0236 -0.8115
midair 1.3618 -1.1912 -0.19648 0.098406 -0.36627 0.94482 0.5519 0.51687 0.43329 -0.098834 0.18836 -0.15448 -0.7803 1.5824 0.3452 -0.3806 -0.73911 0.59557 -1.7766 -0.31019 0.20325 0.32947 0.030033 -0.45822 0.83722 -0.5209 0.4643 0.99249 1.4969 0.30139 0.01994 0.44868 -0.22597 0.59616 0.248 0.13764 -0.088856 -0.46918 0.10548 1.4755 -1.0359 0.19772 0.60124 0.12752 -0.54716 0.23142 0.90791 0.66326 -0.017452 -0.6060
blue -0.83751 0.69563 -0.51408 0.23689 0.59192 -0.027491 -1.2076 -0.98796 -0.27658 -0.4618 0.4715 0.13072 0.50393 0.50556 -0.66766 0.069073 -0.60984 -0.22776 -1.2481 -1.3521 -0.56051 -0.17952 0.22886 -0.69244 -1.1734 -0.98778 -0.81551 1.5513 0.36517 -1.1162 2.632 0.21987 0.10695 0.28438 -0.10348 -0.29667 -0.17645 -0.75838 0.085523 -0.83641 -0.12174 -0.063165 -0.072053 -0.30712 0.61861 -0.30867 0.012374 -1.1966 0.041525 -0.2396
maneuvering 1.0941 -0.70837 0.16758 -0.093029 -0.62044 0.1281 0.78575 0.83438 -0.45909 -0.16548 -0.90443 -0.25183 -0.58309 1.3057 -1.0432 -0.16422 0.035336 0.26858 -0.22744 -1.1122 0.34959 0.3186 -0.22781 -0.53502 0.45512 -0.5577 0.42301 0.29086 0.59595 0.96859 0.94447 0.32443 -0.68249 -0.61888 0.0059975 0.46362 -0.84087 0.64559 -0.79051 -0.26154 -0.18281 0.16719 -0.40746 0.95153 -0.48155 -0.56946 0.99718 0.36543 -0.38813 -0.1068
across 0.5236 -0.020293 0.26881 -0.48425 -0.54396 -0.46181 -0.90864 -0.32993 0.62731 -0.68066 -0.54416 -1.072 0.039323 0.029368 -0.49019 -0.059847 0.2317 -0.17236 -0.62349 -0.69779 0.48163 0.21039 0.30509 0.50297 0.13997 -1.2732 0.08541 0.70401 0.20331 -0.65306 3.679 0.55571 0.51758 -0.46839 -0.60765 0.082281 -0.94349 -0.38319 -0.3827 0.70752 -0.56429 0.48173 0.38864 0.038322 -0.21097 0.14094 0.14637 -0.91432 -0.6157 -1.311
formation 0.55573 0.29902 -0.50654 -0.12923 -0.040445 0.42514 0.12418 0.45897 0.022599 -0.2959 0.78723 -0.070883 0.14756 0.77979 -1.4169 0.44932 0.78988 -0.49807 -0.59585 0.059972 -0.55402 -1.0674 0.22843 -0.43363 -0.69855 -0.35614 -0.18194 0.077765 -0.34002 0.46336 2.6941 -1.0249 -0.6977 -0.89617 0.22833 0.08902 0.083003 -0.40717 0.35015 0.19086 -0.84291 -0.88792 -0.78448 -0.25271 -0.00091324 -0.37932 0.83845 -0.17713 -0.38325 -0.5629
opened 0.18287 0.11848 -0.27305 -0.11983 0.20925 -0.63394 -1.3037 -0.19614 -0.17756 -0.55134 -0.20256 -0.7756 -0.69125 0.16365 -0.012999 0.094886 -0.38625 0.022833 -1.0079 0.24653 1.3771 0.36476 -0.56621 0.10028 -0.58893 -1.1739 0.62789 0.39045 -0.15263 -0.3333 2.8057 -0.36408 -0.12703 -0.22185 -0.0036229 -0.088728 0.51306 0.37857 0.1006 0.32229 -0.15296 -0.40447 -0.03948 -0.43208 -0.025197 0.1309 -0.1902 -0.98484 0.28758 -0.5075
shown 0.52941 0.43847 -0.071121 -0.19902 0.50043 0.43515 0.0082781 -0.31204 0.20981 0.49679 0.63719 -0.18284 -0.26122 -0.087088 0.39491 0.10867 -0.4284 -0.29363 -0.43847 -0.4265 0.1727 0.26501 0.98561 -0.11232 0.16804 -0.98971 -0.81362 0.45362 0.020582 -0.11473 2.6805 0.60197 0.38028 -1.6558 -0.10505 0.10452 0.31762 0.27013 -0.951 -0.36853 0.087494 -0.082116 -0.51899 -0.12968 0.24145 -0.35807 -0.075306 -0.0077025 0.061847 -0.008011
mountain 0.44469 1.7411 0.24895 0.30172 -0.60967 -0.64624 -1.2097 -0.16842 0.44635 -1.2397 -0.42442 -0.92472 0.68919 -0.29421 -0.70245 0.65651 1.0121 0.66883 -1.3459 -0.31857 -0.94914 -0.022777 -0.0096754 0.71226 0.36824 -0.7096 -1.2219 0.77468 0.03788 -0.046706 2.3723 -0.80034 -0.76385 0.41145 0.78734 -0.17004 -0.9871 -0.62722 0.28548 0.024311 -0.56093 -0.044454 0.17004 -0.052555 0.32851 -0.4362 1.0471 -1.1037 0.0058918 -0.8615
direction 0.21509 0.088083 0.033673 -0.79121 0.4699 -0.34245 0.26489 -0.0013649 -0.32665 -0.1228 0.1498 0.24498 -0.68862 0.31829 -0.98136 0.10593 0.54722 -0.31309 -0.50695 -0.90732 0.3757 0.050616 -0.027535 0.1496 1.0161 -1.0673 -0.042352 0.49031 0.0064926 0.01463 3.0115 -0.16191 0.25392 -0.98105 -0.14728 -0.94004 -0.3135 0.094133 -0.31399 0.47341 -0.096487 0.26392 -0.32743 -0.48938 -0.93727 -0.44228 0.94823 -0.14274 0.1556 0.7688
balls -0.98352 -0.21555 -0.13988 0.011478 0.50521 0.19284 -0.072265 -0.50407 0.42191 0.39505 -0.94977 0.49647 -0.82266 0.92953 -0.19391 -0.55918 0.85425 -0.36937 -1.6091 -1.2886 -0.16508 0.84728 1.6794 -0.66458 0.18802 0.0077111 0.53579 0.47285 0.6949 -0.74646 2.4528 0.62598 0.25262 1.6084 0.91301 0.5788 0.94262 0.96198 -0.12007 0.61114 -0.30569 0.55399 0.17988 1.1449 0.044151 1.0572 -0.52778 -0.65529 0.37645 -0.748
they 0.70835 -0.57361 0.15375 -0.63335 0.46879 -0.066566 -0.86826 0.35967 -0.64786 -0.22525 0.09752 0.27732 -0.35176 -0.25955 0.62368 0.60824 0.34905 -0.27195 -0.27981 -1.0183 -0.1487 0.41932 1.0342 0.17783 0.13569 -1.9999 -0.56163 0.004018 0.60839 -1.0031 3.9546 0.68698 -0.53593 -0.7427 0.18078 0.034527 0.016026 0.12467 -0.084633 -0.10375 -0.47862 -0.22314 0.25487 0.69985 0.32714 -0.15726 -0.6202 -0.23113 -0.31217 -0.304
touched 0.051138 0.089993 0.093036 -0.3296 0.58508 0.29764 -0.10736 0.26575 -0.04665 0.16782 -0.3279 -0.2084 -0.53501 0.47938 0.36011 -0.024709 -0.94502 -0.27385 -0.95673 -0.15196 0.090199 1.0225 0.37635 -0.63131 0.84902 -1.2635 0.49682 1.0861 0.58352 0.22823 1.5196 0.23106 0.61777 -0.015895 -0.57832 -0.41256 -0.22668 -0.26209 -0.098343 -0.05422 -0.40606 0.34008 0.089808 0.090574 0.022797 0.25321 0.25519 -0.070918 -0.26585 -0.6774
float 0.55362 -0.14596 0.21557 -0.29324 0.31927 -0.70925 0.016169 -0.30319 -0.099049 0.54411 0.19724 0.74081 0.64578 1.0084 -0.046255 0.62915 0.15222 -0.099586 -0.80174 -1.2719 1.1566 -0.65105 0.14595 -0.3727 0.23536 -0.39678 0.2705 0.80855 0.44442 -0.66243 1.4347 0.42464 -0.15757 0.82521 -0.53481 -0.72541 -0.021103 -0.35751 -0.35098 -0.26996 -0.24503 -0.34668 0.39565 0.32853 -0.26268 -0.47418 0.30971 -0.93718 0.35052 -0.8135
spread 0.72352 -0.4013 0.10447 -0.627 0.12117 0.7655 -0.32406 -1.1818 0.55192 0.13733 -0.086829 -0.53342 0.41268 -0.39959 0.0071817 0.41141 -0.25745 -0.4971 -0.38626 0.60265 0.21522 -0.2381 1.1205 0.15049 0.075016 -0.96559 0.15029 0.37919 1.1709 0.027733 3.0913 0.60049 0.0034446 -0.46097 -1.0319 0.050346 -0.94646 -0.094132 0.32579 0.49388 -0.29047 -0.019396 0.20585 0.28985 0.49383 0.60998 0.017378 -0.17372 0.24664 -1.012
onion 0.0099727 0.27951 -0.92119 0.0087638 0.71206 -0.29834 0.60247 -0.13617 -1.0734 -0.088431 -1.0597 0.38107 1.1156 0.27397 -0.55001 -0.29295 0.028922 0.40802 -0.59995 -0.19854 0.26314 -1.734 1.8612 0.18616 -1.2123 -0.058504 0.37557 1.7417 1.0782 -0.72126 1.514 -0.51227 0.2119 0.95161 -0.63633 0.65343 -1.0067 0.5847 0.63047 -0.96966 1.2346 -0.05274 -0.61803 -0.56434 1.2664 1.7918 0.58051 -0.17542 -0.42648 -0.1022
has 0.54822 0.038847 0.10127 0.31319 0.095487 0.41814 -0.79493 -0.58296 0.026643 0.12392 0.35194 -0.02163 -0.87018 -0.27178 0.65449 0.42934 0.097544 0.31779 -0.11921 -0.097106 -0.47585 0.24907 0.1223 -0.29079 -0.16866 -2.1072 0.022174 0.45277 -0.64485 0.13181 3.6594 -0.1714 0.23919 -0.42249 -0.088331 -0.32925 -0.12847 0.47055 -0.075953 -0.27747 -0.41905 0.60803 -0.24261 0.014885 -0.23204 0.020879 -0.82175 0.26588 -0.40267 -0.1711
water 0.53507 0.5761 -0.054351 -0.208 -0.7882 -0.17592 -0.21255 -0.14388 1.0344 -0.079253 0.27696 0.37951 1.2139 -0.34032 -0.18118 0.72968 0.89373 0.82912 -0.88932 -1.4071 0.55571 -0.017453 1.2524 -0.57916 0.43 -0.77935 0.4977 1.2746 1.0448 0.36433 3.7921 0.083653 -0.45044 -0.063996 -0.19866 0.75252 -0.27811 0.42783 1.4755 0.37735 0.079519 0.024462 0.5013 0.33565 0.051406 0.39879 -0.35603 -0.78654 0.61563 -0.9547
ramp 0.63331 0.50191 1.2153 -0.70573 -0.72354 -0.37845 -0.12516 -0.10817 0.80894 -0.3097 -0.36967 -0.21569 -0.32358 0.85832 -0.76455 0.30401 0.22028 0.73449 0.14945 -1.0403 0.66895 -0.81313 -1.1773 0.13934 0.46966 -0.53678 1.0664 1.0595 0.58129 -0.56236 1.4887 0.31003 0.18472 0.46245 0.031794 -0.12704 0.82744 -0.1087 -0.32657 0.32684 -0.39223 -0.60427 0.094041 0.076976 -0.1402 -1.1459 0.6132 -0.65164 0.37458 0.1193
trees 0.87813 0.64696 0.31447 0.1683 0.1936 0.085991 -1.1177 -1.0544 0.07278 -0.58128 -0.83187 -0.37427 1.064 -1.0586 0.084875 0.29492 0.35512 0.23121 0.18424 -1.7912 -1.1568 -0.74142 0.40801 -0.64031 0.86476 0.53864 0.24997 1.0902 0.98498 -0.71896 2.834 -0.67698 0.014172 -0.068273 -0.15182 0.61362 -0.56045 -0.37151 0.39271 -0.044244 -1.0053 -0.87896 0.056767 0.1912 1.5539 0.43487 -0.065982 -1.8907 0.065657 -1.452
probably 0.64771 -0.16463 0.19638 -0.58726 0.63416 0.023322 -0.66678 0.43913 -0.59603 0.035893 0.022174 0.26466 -0.047142 -0.40288 1.0235 0.68651 0.20022 -0.23388 -0.57263 -0.42456 -0.45872 -0.553 0.28364 0.044037 0.69875 -1.7093 -0.87817 0.08723 0.69903 -0.1943 2.91 -0.14596 0.099823 -0.3496 0.27471 -0.36583 0.15896 0.37503 0.072666 -0.39181 -0.5179 0.028242 -0.010855 0.60391 -0.097684 0.1808 -0.0078304 0.0044668 -0.20534 0.3927
being 0.59049 -0.66076 -0.02551 -0.66217 0.3834 0.31517 -0.82654 0.14879 -0.36427 0.015319 0.51745 0.2739 -0.42352 -0.1069 0.65642 0.13723 -0.011125 0.38913 -0.54748 -0.15923 -0.26029 0.37735 0.83593 0.16307 0.013573 -2.0174 -0.15106 0.49917 0.1841 -0.17101 3.5601 -0.35118 0.24638 -0.94568 0.22149 0.22784 0.56643 0.41457 -0.58431 -0.39573 -0.26413 -0.18254 0.00017507 0.47701 -0.15756 -0.43371 -1.0655 -0.41736 0.086398 -0.3897
sun -0.37233 1.668 0.65616 1.2843 -0.070946 -1.6153 -0.28654 -0.67317 -0.49887 0.10531 0.18092 0.40495 0.52388 0.2854 -0.25076 0.75149 -1.2153 0.053438 -1.0649 0.037125 -0.22833 0.30398 1.2688 -0.85494 0.4933 -0.92463 -0.1465 0.53333 0.20661 -0.05457 2.6193 -0.11424 -0.30039 -0.0018384 -0.7764 -0.58229 -0.41817 -0.040371 0.41883 -0.23931 0.2125 -0.17315 -0.31351 0.3604 0.79981 -0.17144 0.19295 -1.6196 0.34135 -0.1772
high -0.65758 1.2502 0.19082 -0.6742 -0.10125 -0.046932 -0.27648 -0.48253 0.39254 0.3704 -0.24111 -0.6429 0.27676 -0.62422 -0.52203 0.29799 -0.1996 0.36884 -0.81686 -0.48865 0.11511 0.066147 -0.38797 -0.18239 -0.5759 -1.8776 0.61045 0.43434 -0.090497 0.17718 3.4808 0.026707 0.60486 -0.7885 1.248 -0.32864 -0.15526 0.12868 0.65885 -0.27297 -0.69856 0.46953 0.19621 0.40444 0.061996 0.046055 0.72038 -0.45636 -0.19089 0.09935
something 0.39533 -0.0064782 -0.26112 -0.32292 0.96181 0.11242 -0.30927 0.17085 -0.38948 0.77584 -0.31334 0.54971 -0.4579 0.05835 1.0643 0.57949 0.74198 0.22064 0.11507 -0.84422 -0.43365 0.52626 0.067037 0.16294 1.1345 -2.0336 -1.211 0.69115 1.418 -0.80188 3.0172 0.36111 -0.38275 -0.51099 -0.19531 -0.16375 -0.024037 0.32332 -0.0070115 -0.49139 -0.28394 0.06881 -0.11819 0.47825 0.16551 0.29805 0.010174 0.20346 -0.13682 0.7978
are 0.96193 0.012516 0.21733 -0.06539 0.26843 0.33586 -0.45112 -0.60547 -0.46845 -0.18412 0.060949 0.19597 0.22645 0.032802 0.42488 0.49678 0.65346 -0.0274 0.17809 -1.1979 -0.40634 -0.22659 1.1495 0.59342 -0.23759 -0.93254 -0.52502 0.05125 0.032248 -0.72774 4.2466 0.60592 0.33397 -0.85754 0.4895 0.21744 -0.13451 0.0094912 -0.54173 0.18857 -0.64506 0.012695 0.73452 1.0032 0.41874 0.16596 -0.71085 0.14032 -0.38468 -0.3871
pole -0.64317 1.0903 0.72503 0.91727 0.56965 0.40898 -0.77036 0.73575 0.2516 -1.134 0.54967 -0.71887 -0.67695 0.68626 0.054873 -0.11543 0.47031 -0.15367 -1.4341 -1.6528 -0.50983 -0.30121 -0.69096 0.026547 1.372 -0.59208 -0.39131 -0.16233 0.21194 0.23962 1.2497 -0.12518 -0.78594 0.58051 0.17732 -0.60166 -0.03033 0.98475 0.14063 0.26368 0.14698 -0.12842 -0.018365 0.010506 -0.61914 -0.37596 0.87252 -1.1628 0.38935 -0.9816
number 0.33614 0.35956 0.97398 -0.11536 0.26715 0.52664 -0.28079 -0.15934 -0.018939 -0.33067 0.10573 -0.53051 0.031862 -0.080079 0.82261 -0.7917 -0.10958 -0.46814 -0.39095 -0.64602 -0.021653 -0.76659 0.79564 0.59753 -0.12686 -0.69666 -0.88445 -1.0733 -0.3196 0.12422 4.0137 0.14167 0.79684 -0.4697 0.70954 0.15874 0.64932 -0.014985 -0.67939 0.29073 -0.2803 -0.096077 0.75959 0.44819 -0.05046 -0.19157 -0.42044 0.080226 -0.23491 -0.2227
liquid 0.82969 -0.14426 0.37323 -0.059426 0.26619 0.37446 0.71382 -0.57267 0.31147 1.3966 1.0291 0.45575 0.70299 0.97361 -0.14882 0.98384 0.020017 0.92215 -0.96578 -1.3533 1.2126 -0.11602 1.6535 -0.33384 -0.78757 -0.31121 0.27948 1.6664 1.2475 0.8442 2.2878 -0.38417 -0.26932 -0.35136 0.22319 0.78476 -0.44396 0.73988 1.1274 -0.32017 1.1082 0.077727 0.022369 0.29397 0.027094 0.6303 0.4852 0.25275 0.26817 -0.667
wooded 1.2518 0.38018 0.036059 -0.31667 -0.21426 -0.35394 -1.1794 -0.48883 0.022673 -1.1392 -1.129 -1.8177 0.69031 -0.91197 -1.0816 0.53028 0.84671 0.24435 -0.17449 0.17629 -1.0345 0.76752 -0.31973 0.46286 0.42184 0.4833 0.48505 2.1 0.7278 0.093756 1.7399 -1.608 0.61996 -0.24812 0.41188 0.40733 -0.96737 0.47271 -0.053301 -0.014454 -0.3431 -0.23736 0.66908 0.47723 -0.33563 -0.98392 0.46363 -0.86537 0.86327 -0.9817
protection 0.21079 -0.018843 -0.20234 0.32884 0.034886 0.14259 0.10817 -0.50212 1.4282 -0.68258 0.54209 0.49283 0.63964 -0.30603 -0.070613 0.046224 0.06109 -0.38855 0.53582 -0.42704 -0.30155 -0.32241 -1.0264 -1.1674 -0.57399 -1.515 -0.056705 -0.53699 0.30939 -0.053285 3.0427 -0.094382 -0.78629 -0.94858 -0.64579 0.47367 0.34817 -0.8688 0.26835 -0.26803 -0.164 -0.17767 1.1668 0.28634 -0.21498 -0.4128 -0.72327 0.29196 0.2399 0.07540
bent -0.27279 -0.51206 0.29054 -1.348 0.53011 0.76661 0.38982 -0.45634 -0.24463 0.23648 -0.24723 0.27343 -1.5472 0.45853 -1.1024 0.0052837 1.1351 -0.33855 -0.014365 0.060012 -0.51864 0.5022 0.21217 -0.098202 0.17095 -1.1467 0.54564 0.45427 0.56601 -0.33095 1.4583 0.017158 0.18223 -0.10321 -0.83221 0.40007 -0.49356 0.24411 -0.24667 0.036831 0.28532 -0.15052 -0.31167 0.26986 0.36117 -0.16095 -0.066311 -0.88833 -0.074176 -1.011
from 0.41037 0.11342 0.051524 -0.53833 -0.12913 0.22247 -0.9494 -0.18963 -0.36623 -0.067011 0.19356 -0.33044 0.11615 -0.58585 0.36106 0.12555 -0.3581 -0.023201 -1.2319 0.23383 0.71256 0.14824 0.50874 -0.12313 -0.20353 -1.82 0.22291 0.020291 -0.081743 -0.27481 3.7343 -0.01874 -0.084522 -0.30364 0.27959 0.043328 -0.24621 0.015373 0.49751 0.15108 -0.01619 0.40132 0.23067 -0.10743 -0.36625 -0.051135 0.041474 -0.36064 -0.19616 -0.8106
village 0.48284 0.54364 -0.31861 -0.32944 0.82965 -0.13847 -0.45208 0.0017623 -0.083864 -1.1738 -0.40242 -1.6601 1.0552 -1.2994 -0.35798 0.44823 1.0681 1.0713 -0.087318 1.2333 0.081161 0.26418 -0.24832 1.2894 0.14729 -0.77164 -0.68391 0.28282 0.094609 -0.1846 3.0294 -0.93536 0.25209 0.26816 0.61407 0.39091 0.27015 -0.31245 0.35563 0.98634 -0.37708 0.089727 0.023634 -0.647 -0.31003 -0.0017388 -0.95263 -1.3046 0.64336 -0.5010
far 0.75138 -0.15736 0.47208 -0.39808 0.18646 -0.11205 -0.39927 -0.0030878 -0.11768 0.17457 -0.28558 -0.75653 -0.11924 -0.26523 0.45835 0.21689 0.56068 -0.11154 -0.62963 -0.36495 -0.42373 0.089858 0.28538 -0.04276 0.38846 -1.8075 -0.42596 0.44824 0.21389 0.028991 3.4978 0.23029 0.3997 -0.46777 0.088587 -0.61494 -0.35905 0.53317 -0.56891 -0.26047 -0.64743 0.29423 0.67012 0.22167 -0.50075 0.09279 -0.43656 0.23532 -0.26338 -0.1620
right -0.31905 -0.09507 -0.049458 -0.45461 0.81447 0.5573 -0.37148 0.22142 -0.18506 -0.058731 0.19556 0.25934 -0.92544 0.60346 -0.11877 0.33422 0.5861 -0.93036 0.057848 -0.3782 -1.1279 0.11801 -0.26057 0.043562 0.25741 -2.2502 0.14761 0.43313 0.6941 -0.94411 3.5944 0.47921 -0.61145 0.16474 -0.68397 -0.091051 0.39399 0.1769 0.33553 -0.13054 0.12659 0.26288 -0.47432 0.79129 -0.75714 -0.117 -0.093022 -0.23004 0.081364 -0.03514
sold 0.43727 -0.24374 0.71368 -0.20371 0.11868 0.24016 -1.948 -0.87086 -0.20378 0.50161 0.59916 0.45872 0.18383 -0.92029 1.3764 0.41692 -0.66432 0.7871 -0.61088 -0.72317 1.3545 -0.64453 0.21676 0.076787 -1.1351 -0.84901 -0.54637 0.04214 0.26064 -0.47605 2.4522 -0.38918 0.63024 0.69533 0.49598 -0.18687 0.021865 0.60121 -0.061109 -0.66651 0.55331 -0.24444 0.41759 -0.0027664 -0.23834 0.092436 -1.2366 -0.74248 -0.70588 -0.2969
floor -0.020843 0.1869 0.30205 -0.35907 1.1413 -0.6611 -0.25032 -0.05238 0.31642 -0.91659 -1.0451 -1.0255 -0.2805 1.3164 -0.18206 0.018831 -0.19055 -0.43352 -0.3004 -1.5915 0.72232 0.084974 -0.60746 -0.58831 -0.21036 -0.87684 -0.17051 1.2339 0.044178 -0.60595 2.7177 -0.34931 0.12123 -0.29047 -0.37738 0.46879 0.882 0.71832 0.93529 -0.073854 -0.48241 0.0044345 -0.20666 0.71507 -0.20381 0.39739 0.38149 -1.7077 0.017426 -0.2821
sandy -0.25329 1.2418 -0.59168 0.98643 -0.21738 0.034733 -1.0513 0.15444 -0.15758 -1.0868 -0.2647 0.5958 0.094893 0.12552 -0.089477 0.74002 1.4164 -0.25067 0.033167 -0.25916 -0.87691 0.62616 0.61432 -0.11284 0.0015425 0.21434 1.0923 1.2434 0.42392 -0.1179 1.4399 -1.2936 0.69184 -0.15257 -0.17628 0.16127 -0.57356 0.13922 0.79957 -0.091558 -0.26298 0.62346 0.24561 0.0060751 -0.21935 -0.42924 -0.043764 -1.4525 -0.32356 0.4928
stage 0.93153 0.59561 -0.65776 -0.13004 -0.45251 0.46964 -0.071465 0.34625 -0.22717 0.54609 -0.10635 -0.97996 -0.75192 0.68514 0.33248 -0.14243 0.59339 -0.15631 -1.08 -0.65955 0.28352 0.30635 -0.26054 0.27325 0.30497 -0.76758 -0.51226 -0.040254 -0.66753 0.014134 3.0171 0.39004 -0.67486 -0.27266 0.24882 -0.063204 0.59138 0.76953 -0.64037 -0.69238 -0.2943 -0.078855 -0.41919 -0.59256 0.24875 -0.14058 0.92176 -0.94811 -0.33936 -0.03275
time 0.02648 0.33737 0.065667 -0.11609 0.41651 -0.21142 -0.69582 0.2822 -0.36077 -0.13822 0.012094 0.086227 -0.84638 0.057195 1.1582 0.14703 -0.0049197 -0.24899 -0.96014 -0.3038 0.23972 0.21058 0.40608 0.17789 0.55253 -1.6357 -0.17784 -0.45222 0.45805 0.14239 3.7087 0.40289 -0.4083 -0.29304 0.030857 -0.15361 0.10607 0.63397 0.12397 -0.25349 -0.10344 0.0069768 -0.17328 0.35536 -0.46369 0.15285 0.41475 -0.3398 -0.23043 0.1906
call 0.098201 0.39924 0.25697 -0.085349 0.27175 -0.63637 -0.62719 0.25895 -0.53249 -0.22927 -0.76258 0.2173 0.37017 0.082194 0.46016 0.14439 -0.35333 -0.62408 0.1025 -0.58597 0.16874 0.41939 0.082275 0.48931 0.62348 -1.8434 -0.11815 -0.25465 0.38033 -0.41893 3.0159 0.35014 -1.2656 -0.14951 -0.32056 -0.72769 0.5398 -1.2532 -0.013795 -0.0048093 0.37453 0.41136 -0.12614 0.48701 0.4782 0.35898 -0.1709 0.70284 0.32207 0.7750
for 0.15272 0.36181 -0.22168 0.066051 0.13029 0.37075 -0.75874 -0.44722 0.22563 0.10208 0.054225 0.13494 -0.43052 -0.2134 0.56139 -0.21445 0.077974 0.10137 -0.51306 -0.40295 0.40639 0.23309 0.20696 -0.12668 -0.50634 -1.7131 0.077183 -0.39138 -0.10594 -0.23743 3.9552 0.66596 -0.61841 -0.3268 0.37021 0.25764 0.38977 0.27121 0.043024 -0.34322 0.020339 0.2142 0.044097 0.14003 -0.20079 0.074794 -0.36076 0.43382 -0.084617 0.121
circular 0.98274 0.62918 -0.067143 0.27669 0.21611 0.15131 0.87206 -0.71195 0.22029 -0.97396 -0.40337 -0.28856 0.29251 1.035 -0.85468 0.20068 -0.26062 -0.24753 -0.10556 -1.0728 0.29177 -1.0095 -0.2918 -0.28843 0.40449 -0.094278 -0.044784 1.2718 -0.47938 -0.72661 2.4137 -1.0512 -0.010328 -0.061159 -0.73561 -0.025344 0.97658 0.03006 -0.34232 0.5814 0.11486 -0.35974 -0.31133 0.78181 -0.27164 -0.53328 0.77773 -0.33668 0.43804 -0.5812
hand 0.088068 -0.42703 0.21275 -0.46137 0.88653 0.31964 -0.0094923 0.12259 -0.011234 -0.2113 -0.11769 0.085932 -0.54004 0.27666 -0.074244 0.11298 -0.31362 -0.30666 0.13833 -0.99789 -0.10509 0.56499 0.30105 -0.60911 0.21528 -1.9955 -0.23075 0.36169 0.36569 -0.83593 3.1593 0.38484 -0.58786 0.30266 -0.080106 0.7723 0.14527 0.54844 0.13905 -0.15815 0.37559 0.64325 -0.35815 0.2687 0.37035 -0.12839 0.14046 -0.37389 -0.24085 -0.8075
her 0.13403 0.89178 -0.76761 -0.64184 0.86204 1.3122 -0.64018 0.82067 0.32783 0.021457 -0.095194 0.40825 -0.63602 -0.018275 0.69708 -0.29531 -1.1912 -0.23897 0.34341 -0.33196 0.23702 1.8364 0.12295 -0.18624 0.86503 -2.636 -0.7791 0.203 0.18985 -0.79897 2.9882 0.44336 -0.28367 -0.19588 0.061875 0.38558 -0.027622 0.71847 0.17156 -1.2168 0.081636 0.17293 -0.31718 -0.37039 0.18977 -0.89175 0.18492 -1.6251 0.039134 -0.1027
friend 0.1669 0.98757 -0.027122 -0.29075 1.1917 0.56752 -1.2344 0.51221 -0.69893 -0.011795 -0.16918 1.0709 -0.53755 -0.10829 0.77406 -0.29525 -0.23824 0.26055 0.2545 0.0072983 -0.11534 1.2641 -0.059262 0.27406 0.7965 -2.1522 -0.15152 -0.3725 0.068102 -0.24862 1.6662 -0.36509 -0.24184 -0.17983 0.09604 0.083266 -0.3055 0.29688 0.43182 -0.53256 0.41804 0.88657 -0.64102 -0.4662 0.75824 -0.54164 -0.5663 -1.1662 -0.014035 0.7616
sticky -0.1823 -0.52044 -0.40505 0.61711 0.030124 0.63158 0.77912 -0.029652 0.57601 0.17057 -0.28082 0.22669 -0.029069 1.1583 0.51628 0.69291 -0.022023 0.12888 0.71023 -1.2453 -0.07286 -0.10677 1.6708 -0.10004 0.35664 0.0076085 0.023184 1.9067 1.079 -0.16543 1.452 -0.59191 0.062752 0.59018 0.12866 0.67665 -0.043533 0.23912 0.46122 -0.23443 -0.48545 0.15113 -0.30083 0.30843 1.063 0.32296 0.77755 0.066921 0.24048 -0.5951
removed 0.40167 -0.42278 0.34675 -0.36162 0.21494 0.80824 -0.33118 -0.024988 0.29322 -0.81523 0.34371 0.36522 -0.18203 0.33429 0.2796 0.85042 -0.58492 -0.56161 0.13503 -0.25502 0.05524 -0.31908 0.69745 -0.60701 -0.36309 -1.257 0.5272 0.55746 0.24522 -0.28596 2.4429 -0.82555 -0.13483 -0.49509 -0.02732 0.81831 1.3725 0.54151 -0.031503 -0.037537 -0.0036787 -0.052231 -0.16148 0.50866 -0.031097 0.14415 -0.72193 -0.81198 -0.13357 -0.9176
background -0.6742 0.85137 -0.44563 -0.13542 0.66321 0.40091 -0.17317 -0.31843 -0.50706 -0.16611 -0.0037329 -0.15644 0.49711 0.42111 -0.15725 -0.29234 -0.49116 -0.41583 0.40411 -0.98499 0.038447 0.58983 -0.097437 0.13938 0.21717 -0.79006 -1.1404 0.063862 0.091416 0.13035 2.6491 -0.39185 0.10433 -1.2945 0.25436 0.68762 -0.24406 -0.55442 -0.26576 -0.19875 0.4121 0.48016 0.10084 -0.0076807 0.14454 -0.2255 0.78955 0.49908 0.1241 0.0666
sheets -0.49239 0.27394 0.64453 -0.38235 -0.15591 0.35144 -0.35041 -0.29291 -0.14225 -0.45399 -0.39235 0.17125 0.34124 1.0172 -0.14663 0.14043 -0.26851 -1.068 0.64241 -1.0094 0.68758 -0.32491 1.245 -0.82606 -0.64749 0.4014 -0.87445 0.97407 0.82856 -0.9279 2.1884 -0.07571 0.2544 0.56825 -0.45776 1.083 0.23142 0.58105 1.0154 -0.39702 0.33602 -0.32077 0.48785 0.18316 -0.15567 -0.16068 0.017388 -0.11553 0.22712 -0.9221
drill -0.0055476 -0.39273 0.15205 0.4551 -0.36954 -0.40238 0.36912 0.747 0.55792 -0.83863 -0.37462 -0.20634 0.40669 1.1276 -0.79788 -0.24294 0.27706 1.0719 -1.1724 -0.61039 0.54103 0.18078 0.202 -1.0802 0.58973 -0.91807 -0.0088915 0.059115 0.47291 -0.655 1.9677 -0.56201 -0.96587 0.35787 0.13509 0.80648 0.33995 -0.36178 0.32938 0.1069 -0.42603 -0.75837 0.019512 0.41161 0.94834 -0.72586 1.4135 0.69039 -0.87651 0.1857
all 0.19253 0.10006 0.063798 -0.087664 0.52217 0.39105 -0.41975 -0.45671 -0.34053 -0.11175 0.014754 0.31734 -0.50853 -0.1156 0.74303 0.097618 0.34407 -0.1213 -0.16938 -0.84088 -0.11231 0.40602 0.76801 0.091138 0.10782 -1.2673 -0.57709 -0.36208 0.34824 -0.75458 4.0426 0.94967 -0.22668 -0.35777 0.3413 0.13072 0.23045 -0.036997 -0.25889 0.12977 -0.39031 -0.049607 0.45766 0.56782 -0.46165 0.41933 -0.5492 0.081191 -0.30485 -0.3051
guide -0.023482 0.78709 -0.10814 -0.44462 0.51562 -0.63273 -1.2937 -0.70357 1.1102 -0.27618 -0.2118 0.69839 0.24993 0.93561 -0.00086022 -0.38984 0.069735 -0.057863 -0.027173 -0.0095559 0.26082 0.49266 -0.045354 0.91049 0.75221 -0.89535 -1.122 -0.4908 -0.13705 0.10937 2.2176 -0.25483 -0.64497 -0.14756 0.34598 0.27521 -0.015195 -0.017223 -0.19658 -0.1803 0.56097 -0.24954 0.24568 0.32147 -0.013275 -0.085179 0.56171 0.54682 0.7448 0.4092
few 0.6008 0.18044 0.078339 -0.49145 0.15206 0.070585 -0.99555 0.24069 -0.70344 -0.079897 -0.6171 -0.22407 0.087453 -0.065739 0.61235 -0.0053355 0.10193 -0.24652 -0.31209 -1.0608 0.11929 0.19158 0.73512 0.18325 0.30307 -1.196 -0.67715 0.27333 0.46601 -0.39764 3.7388 0.38117 0.32813 -0.4689 0.39003 0.3538 -0.25716 0.32472 -0.2648 0.011687 -0.42164 0.26935 0.12562 0.71086 0.21745 0.030797 -0.17412 -0.016404 -0.65372 -0.3825
attached 0.25371 0.17862 0.38679 -0.59138 0.90291 0.49861 0.31311 -0.15251 0.457 -1.2467 0.47207 0.49782 0.21138 0.89 -0.87915 0.46607 -0.64227 0.36424 0.17 -0.81557 0.32389 -0.66926 -0.10658 -0.086986 -0.083863 -1.3742 -0.21513 0.70008 0.16965 -0.47744 2.3157 -0.20571 -0.018608 -0.16991 0.062562 0.83787 0.77996 0.14202 -0.45598 -0.10554 0.55605 -0.49124 -0.060273 0.32167 0.030796 -0.18831 0.24019 -0.61839 -0.13136 -0.483
truck 0.35016 -0.36192 1.505 -0.070263 0.32708 0.48106 -1.4825 0.07962 0.83452 -0.72912 0.19233 -0.90769 -0.89611 0.33796 0.42153 -0.47797 -0.47473 1.6142 -0.5358 -1.6758 0.64926 0.074053 -0.66378 0.66352 -0.11525 -1.46 -0.31867 0.99803 1.636 -0.11678 1.8673 -0.19582 -0.50549 0.82963 1.3381 0.33233 0.24957 -0.37286 0.2777 0.88405 -0.29343 -0.0033666 0.27167 -1.1805 0.53095 -0.31678 -0.3141 -0.31516 0.96377 -0.5511
practice -0.80593 -0.25387 -1.4214 -0.28011 -0.25863 0.10898 -0.85099 -0.046473 0.047432 -0.1943 0.23808 0.069897 -0.72063 -0.24847 0.21894 0.074941 -0.31288 -0.22445 -0.53295 -0.38043 0.044 0.45856 -0.245 0.13359 0.0857 -1.4829 0.087946 -0.57773 0.5172 -0.40443 3.0412 0.14963 -0.51261 -0.66842 0.118 0.081869 0.50743 0.7722 0.032787 0.70971 -0.57003 -0.77267 -0.076474 1.7808 0.25869 -0.14908 0.40758 0.089992 -0.13961 0.2464
empty 0.54126 0.06131 0.52434 -0.75057 1.0796 -0.40368 -0.73044 -0.043202 -0.050607 -0.33918 -0.52919 -0.75328 0.027048 0.67614 0.51295 0.3283 0.31938 0.21176 -0.23056 -0.92346 0.21279 0.11278 -0.14662 0.2621 -0.3078 -0.64463 -0.02359 1.701 1.3357 -0.25054 2.1871 0.14515 0.17642 0.20861 -0.12523 0.90434 0.66984 0.32332 0.26016 0.25248 0.3002 0.032075 -0.042688 0.76523 -0.39902 0.43078 -0.69674 -0.49191 0.1245 -0.9343
fur -0.25652 -0.2379 -1.2444 -1.082 0.057752 -0.12851 -1.0559 -1.4146 0.46095 -0.68537 0.76261 0.2427 0.80589 0.39549 -0.39385 0.62955 0.46084 -0.91509 -0.52252 -0.044078 -0.19979 -0.64645 0.64877 -0.22478 -1.4462 -0.88136 -1.7016 1.1737 0.61618 -0.67598 0.75451 -0.17621 -0.037675 1.0833 -0.29271 -0.16364 -1.0336 0.52648 -0.087747 0.27528 0.10905 0.57905 1.1103 -0.10314 1.2018 -1.5392 0.24888 -0.75755 -0.14792 -0.0636
electronic -0.66594 -0.6551 0.92148 0.68301 -0.47822 -0.2803 -0.53848 -1.0404 0.86666 0.94106 0.68266 0.16785 0.27838 1.1826 -0.41586 -0.053318 -1.2734 -0.22728 0.087516 -0.91505 1.7087 -0.11551 -0.76449 0.027068 -0.029328 -0.72308 -0.74972 -0.72909 0.40463 -0.50634 2.9845 -0.58706 0.30288 -0.50952 -0.32629 0.43184 0.29218 -0.29649 -0.0017555 0.12518 1.0972 0.16128 0.22262 0.67454 0.15689 0.26961 0.78616 0.3645 -0.42447 -0.05873
goggles -0.23584 0.038161 0.46588 0.27202 -0.47224 -0.25684 0.13368 -0.95391 0.62591 -0.34144 1.1795 0.21709 0.048596 0.72451 -0.20587 1.1246 -0.95808 0.13259 -0.53044 -1.2517 -0.47323 1.7176 0.067492 -1.0765 -0.41096 -0.44863 -0.60226 0.6075 1.0214 -0.6387 0.13184 1.5075 -1.204 -0.34001 -0.32178 1.4653 0.4435 -0.022418 -0.54781 -0.15832 0.82915 0.68618 0.69912 0.74874 0.58773 -0.74148 0.34785 -0.53925 -0.47218 -0.5460
tree 0.62231 1.1986 -0.014116 0.20125 0.69419 0.12068 -0.90399 -1.4023 0.43357 -0.48537 -0.4645 0.15756 0.54261 -0.32467 -0.025646 0.45742 0.16561 0.18819 0.062099 -0.86418 -1.0425 -0.81157 0.3126 -0.20279 0.55734 -0.28634 -0.14874 1.0098 0.25041 -0.53195 2.3793 -0.76966 -0.63219 0.3203 0.15072 0.23326 -0.26254 -0.29461 0.7671 -0.11577 -0.68129 -0.65413 -0.58914 0.24684 1.5904 0.33025 0.41513 -1.7468 0.82453 -1.088
moving 0.15324 -0.19664 0.30528 -0.47694 0.081266 -0.47313 -0.66208 0.017351 -0.18038 -0.33291 -0.080836 -0.41401 -0.4916 0.11279 -0.25688 0.23787 0.048242 -0.1233 -0.52168 -0.56291 0.57547 0.07084 0.05533 0.25584 0.32719 -1.1321 0.35703 0.53696 0.93341 -0.32244 3.1367 0.28967 0.099971 -0.80543 -0.20983 -0.15261 -0.43212 0.16426 -0.3089 -0.096038 -0.20924 -0.29067 0.34702 -0.31724 -0.35343 0.18766 0.61172 -0.54766 -0.15538 0.05258
fly 1.0537 -0.014709 -0.03805 -0.13993 0.19326 -0.4687 -1.0596 0.27514 0.76406 -0.43631 0.6427 0.64749 0.184 1.1501 0.16316 0.32705 0.37814 -0.29703 -1.4403 -0.57214 -0.52559 0.075967 0.063498 0.29643 0.41101 -1.3983 0.66589 0.24757 0.78231 -0.91245 2.1465 0.81745 -0.72006 0.76844 0.4031 -0.34323 0.52003 -0.055061 -0.78433 0.86388 -0.053273 0.50298 0.81294 0.0093394 0.013265 -0.04093 0.11594 -0.41554 -0.73871 0.267
marsh 0.44209 0.33106 -0.67053 0.66304 -0.3682 0.72949 -1.1588 -0.23805 0.72345 -0.76367 -0.57817 0.92165 0.1259 -0.90635 -0.17078 0.46281 1.5658 -0.23601 -1.0217 0.020926 -0.46761 0.2126 0.3848 -0.38066 -0.25838 -0.00070963 0.66883 0.17861 -0.11345 0.02768 0.92008 -0.87211 0.59141 0.20554 -0.014527 -0.19026 -0.47498 -0.59896 0.72513 -0.12621 0.12999 0.18523 -0.16297 0.64012 0.3063 -0.089699 -0.66148 -0.99094 -0.21359 0.3230
range 0.6334 0.76075 0.2846 -0.22137 -0.23531 0.10778 -0.18562 -1.1155 0.61539 0.22784 0.0094681 -0.62783 0.67742 -0.45743 -0.76741 0.21635 0.46559 0.058398 -1.3077 -0.70433 -0.1526 -0.11927 -0.052904 -0.20921 -0.078167 -0.71893 0.11541 0.17708 -0.041183 -0.12012 3.3763 -0.11924 0.30796 -0.12514 1.2174 -0.12306 -0.306 0.29233 -0.80364 0.15093 0.29759 0.54568 0.9153 0.1711 -0.11702 -0.38183 1.3027 0.53776 -0.61348 -0.001872
fitting 0.022088 0.47609 -0.99071 -0.43196 0.51793 0.16044 0.29637 -0.31702 -0.1302 -0.18694 -0.050165 -0.12556 -0.38794 0.27842 0.1264 0.42485 -0.55998 0.081786 0.25091 -1.1229 -0.33764 0.047253 -0.6196 -0.46248 -0.18546 -0.6384 -1.0238 1.2404 1.0521 -0.35988 1.4553 0.12115 -0.37429 0.12796 0.46004 0.53948 0.96652 0.94847 -0.82517 -0.40782 0.15413 -0.29036 -0.35822 0.41385 -0.095791 -0.1915 0.64851 -0.20477 -0.21555 0.2868
seated 0.3339 1.1478 -0.030489 -0.563 1.6214 0.051124 0.51932 0.16996 -0.58894 -0.96275 -0.55363 -0.57993 -0.02418 0.53786 0.26008 0.26299 -0.46281 0.50953 -0.0037042 -1.3333 -0.0086566 0.81297 0.026663 0.24706 0.22817 -0.66966 0.3134 0.92107 -0.56611 0.31599 0.97583 0.6117 0.13752 -0.72822 -0.18461 -0.13997 0.11808 -0.040447 -0.34316 0.010387 -0.26555 0.029275 -0.3853 1.1437 -0.099873 -0.063357 -0.13128 -1.2179 -0.40578 -1.091
mixture -0.24326 -0.083888 -0.99053 -0.5672 0.67884 1.2013 0.601 0.29391 -0.83931 0.78729 0.22277 -0.23 1.1509 0.51698 -0.41579 0.11264 0.43675 0.4463 -0.32079 -1.1378 0.61177 -0.14669 1.766 0.52923 0.010765 0.071539 -0.31667 1.0199 1.559 0.54169 2.6852 -0.22132 -0.55703 0.12625 -0.15131 0.62276 -1.0892 0.57815 0.98116 -0.19722 0.98795 -0.024709 -0.65838 -0.16783 0.26516 1.3989 0.58424 0.2983 -0.14584 -0.7391
experiencing 0.49987 0.016111 -0.62243 -0.31402 -0.67091 0.35063 0.16478 0.64765 0.40926 0.60754 0.60673 -0.2731 -0.14217 -0.4861 0.61352 0.25973 -0.58215 0.13422 0.0046276 -0.063024 -0.51556 0.16538 -0.44347 0.20771 1.0286 -0.341 -0.76924 0.083357 1.1042 1.3464 2.2433 1.2664 1.5553 -0.56416 -0.47268 0.03648 -0.49545 -0.24222 0.47276 0.40195 -1.1789 0.14921 -0.28529 0.32643 0.18394 0.22327 0.35758 0.34296 -0.13852 0.2718
pulling 0.018493 -0.89377 0.60587 -0.55803 0.13981 0.3643 -0.39603 0.27634 0.10705 -0.48501 -0.223 -0.3454 -0.95988 0.41799 0.13244 0.16317 0.15815 -0.037756 -0.22782 -1.1563 0.29584 0.078249 0.023497 -0.15221 0.37504 -1.1797 0.24791 0.65557 0.77378 -0.55943 1.9872 0.8919 -0.073938 0.60091 -0.20573 0.3985 -0.19107 0.1452 -0.22724 -0.35195 -0.27934 -0.033671 -0.11891 -0.19697 0.33359 -0.46929 0.37109 -0.16444 -0.022247 -0.5697
bouncing -0.37002 -0.72881 0.21103 -0.95926 0.11378 -0.33946 -0.43648 -0.23509 0.040781 0.3846 -0.060728 -0.052182 -0.46366 1.0367 -0.17235 -0.011428 -0.44754 -0.29454 -1.0313 -0.65067 0.096459 0.32891 0.39963 -0.19907 0.78475 -0.5238 0.26371 1.1293 0.58055 -0.74936 1.2279 0.89515 0.71635 0.42842 -0.43396 0.15581 -0.2626 0.20117 0.22063 -0.10265 -0.36188 0.18486 -0.12176 0.78358 -0.0049524 -0.44483 1.2716 -0.62472 0.2716 -0.9043
operating 1.0297 -0.95703 1.1917 0.20915 -0.20704 -0.34376 -0.71664 -1.0264 0.60236 -0.24855 0.72428 0.19825 -0.49586 -0.27539 -0.39067 0.11688 -0.60173 0.68122 -0.20133 -0.27207 0.49442 -0.41079 -0.18951 -0.052299 -0.73476 -0.70855 0.23615 -0.53664 0.37545 0.4506 3.4024 -0.12848 0.26563 0.13217 0.4023 -0.24258 -0.040029 -0.055803 -0.28835 0.23218 -0.11986 -0.2776 0.36222 0.40735 -0.80991 -0.41625 -0.31145 0.15021 -0.22084 0.546
pond 0.41284 1.1531 -0.5363 0.10811 -0.2372 0.1868 -1.1259 0.0716 0.76657 -0.72228 -0.51112 0.40092 0.92747 0.044941 -0.22633 0.61025 1.7121 0.66658 -0.95583 -0.051905 0.11586 -0.52832 0.23359 -0.030298 0.64137 -0.24028 0.32332 1.3712 0.39652 -0.6587 1.136 -0.71496 0.36588 0.4076 -0.38346 0.35121 -0.03873 0.1269 1.0619 -0.077725 -0.20408 -0.5428 -0.50404 0.52751 0.30109 -0.43174 0.060885 -1.0441 0.28668 -0.4744
cleaning 0.69085 -0.45243 -0.26976 -0.50921 -0.56058 -0.086577 -0.36401 -0.21974 0.8012 -0.37258 -0.42367 0.14787 0.30855 0.34768 0.045548 -0.044525 -0.15546 0.87531 0.56494 -1.1468 1.1781 0.39415 -0.1188 -0.66399 -0.24308 -0.31441 -0.22637 0.69866 1.5073 -0.043507 2.0053 0.15234 -0.58332 -0.34951 -0.2183 1.7118 0.13022 1.0002 1.5691 0.14973 -0.18564 -0.33572 0.44798 0.5814 0.64256 -0.10965 -0.1067 -0.37002 0.81295 0.1472
color -0.86832 0.98449 -0.24756 0.21341 0.76931 0.54751 -0.12146 -1.8142 -0.37427 0.044667 0.5137 -0.20426 1.0065 0.10974 0.052051 0.16893 -1.162 -0.33376 -0.22194 -1.7457 -0.60825 0.067798 0.73597 -0.30665 -0.27827 -0.051636 -1.5245 0.98754 1.166 -0.34958 2.6078 -0.0093866 -0.56178 -1.3521 -0.073283 0.51592 -0.21913 0.17683 -0.4115 -0.50692 1.0167 0.45998 -0.10464 -0.39324 0.11567 0.31819 0.9566 -0.4299 0.0092608 0.1379
fight 0.18081 -0.88943 -0.056444 0.27761 -0.034368 0.021453 0.65907 0.46379 0.39876 -0.068031 -0.34704 -0.15171 -1.0866 -0.20378 0.52666 -0.26863 0.65746 -0.14551 -0.52916 -0.15447 -0.58662 -0.013325 0.27604 -0.19283 -0.35384 -2.1461 0.18328 -0.90695 0.72437 0.23069 2.7465 0.86624 -1.2765 -0.38499 -0.9856 0.13895 -0.49444 -0.29634 -0.47713 -0.91626 -0.64034 0.1089 -0.23269 0.036234 0.73764 0.12653 -0.18742 -0.92146 -0.54002 0.3885
leg 0.1625 0.037056 -0.81448 0.3471 -0.069935 0.58912 0.46843 1.1223 1.0113 -0.50591 0.50606 -0.32068 -1.6215 0.51217 0.0067356 0.22269 -0.33638 -0.85769 -1.3791 -0.049068 -1.0677 0.70445 0.63383 0.0022187 0.31935 -1.1253 1.0183 0.92364 -0.097113 -0.34963 2.7627 1.1191 0.44519 1.3731 0.2298 0.62459 1.1652 1.1183 0.15188 -0.51702 -0.061478 0.026737 -0.3826 0.1419 0.43629 0.19769 0.77901 -1.0519 0.52401 -1.120
by 0.35215 -0.35603 0.25708 -0.10611 -0.20718 0.63596 -1.0129 -0.45964 -0.48749 -0.080555 0.43769 0.46046 -0.80943 -0.23336 0.46623 -0.10866 -0.1221 -0.63544 -0.73486 -0.24848 0.4317 0.092264 0.52033 -0.46784 0.016798 -1.5124 -0.19986 -0.43351 -0.59247 0.18088 3.5194 -0.7024 0.23613 -0.68514 -0.37009 -0.080451 0.10635 -0.085495 -0.18451 0.29771 0.18123 0.53627 -0.1001 -0.55165 0.098833 -0.12942 -0.82628 -0.4329 -0.10301 -0.5607
middle -0.15502 1.0436 -0.22143 -0.89604 0.49455 -0.19016 -0.81716 0.0041689 -0.2364 -0.57123 -0.49098 -0.28047 -0.079195 0.35637 -0.51791 0.54929 0.52272 -0.28428 0.0691 0.65768 -0.16627 -0.050854 -0.08086 0.61476 0.31824 -1.4969 0.14623 0.12803 0.21027 0.321 3.3359 -0.16002 0.36246 -0.041022 0.52764 -0.11887 -0.74305 0.15915 -0.26379 0.1731 -0.93935 0.04574 0.12269 -0.16843 0.16338 0.42665 0.5911 -0.19491 -0.67296 -0.2404
show -0.034772 0.64145 -0.37352 0.20804 0.20488 0.10238 -0.90995 -0.57641 0.01479 0.45589 -0.15513 -0.18886 -0.44949 0.39482 1.1552 0.15602 -0.071006 0.056749 -0.66921 -0.43072 0.78598 0.67878 0.54741 0.23433 0.18783 -1.1221 -1.3257 0.45237 0.069194 -0.47916 3.0153 0.8077 0.097056 -1.065 -0.49647 0.051322 0.38649 -0.25782 -0.76952 -0.70461 -0.15052 0.36085 -0.97656 -0.58116 0.081565 -0.41565 -0.16104 -0.23396 -0.28784 0.9835
pool 0.012317 1.1423 0.10384 0.66172 -0.065728 -0.21736 -0.042115 0.40021 0.54107 -0.51544 -0.25189 -0.34801 0.34358 0.45193 0.24554 0.36356 0.9688 0.45424 -0.8341 -1.1122 0.30215 0.022876 -0.15185 0.49034 -0.29654 -0.27521 0.43078 0.318 -0.22256 0.17087 2.572 0.43211 0.14052 -0.22186 -0.27549 0.79703 0.25446 0.5761 0.65092 -1.2612 0.31115 -0.53853 0.44011 0.94125 0.17634 -0.1812 -0.020391 -1.096 0.60417 -0.3114
scratching -0.35716 -0.92637 0.043753 -0.69608 -0.24933 -0.17631 0.077051 0.2732 -0.2585 -0.019627 -0.053568 -0.0017565 -0.27863 0.80491 -0.090536 0.32833 0.24267 0.09542 0.26988 -0.97275 -0.21083 0.58716 0.97357 0.16421 0.82509 -0.026231 -0.69222 0.85752 -0.032519 -0.58966 0.9126 0.61513 0.44783 0.26676 -1.1109 0.63224 -0.22492 -0.15902 1.0436 -0.2884 0.084222 -0.019224 -0.88498 1.3239 0.86383 -0.57538 0.81292 0.08514 0.10777 -0.7374
driven 0.18718 -0.60473 0.86388 -0.64742 0.033384 0.28209 -0.52102 -0.34949 -0.19458 0.56776 0.27445 -0.4527 -0.8912 -0.12378 -0.0094498 -0.16153 0.25616 0.6978 -0.28572 -0.91707 0.077079 0.013987 -0.53164 0.15371 0.35772 -1.1281 -0.331 0.069176 0.97369 1.0014 2.6058 0.02911 0.43796 -0.22442 -0.065315 -0.13516 -0.77318 -0.26338 -0.27108 0.040182 -0.46097 0.061664 -0.066273 -0.18169 0.23186 -0.49266 -0.0021362 -0.47235 0.16149 -0.3315
pieces 0.58827 -0.0063354 -0.088369 -0.41174 0.97359 0.76269 -0.24595 -0.29138 -0.48363 -0.068103 -0.51543 -0.10899 0.17394 0.88497 0.45018 -0.77633 0.10801 -0.083533 -0.34496 -1.3893 0.82718 -0.10987 0.48335 -0.49083 -0.03032 -0.1699 -1.4261 0.41726 0.6343 -1.2137 2.9147 -0.81266 0.43529 0.33402 -0.089741 1.3226 0.14075 1.0371 -0.0039985 0.046775 0.84334 -0.089711 0.72914 -0.15901 0.17622 0.84192 0.11559 -0.13519 -0.95651 -0.8380
next 0.39119 0.34992 0.22498 0.11417 0.31087 -0.52257 -0.92955 0.25335 -0.089138 -0.42545 -0.31354 -0.45698 -0.64173 0.31926 1.0812 0.61861 0.028539 -0.34201 -0.68273 -0.25298 0.43399 -0.2645 -0.057452 0.0082656 0.015807 -1.539 0.28407 0.14952 -0.074397 -0.18124 3.5567 0.63548 -0.76356 0.21495 0.23488 -0.30534 0.46327 0.64019 0.077317 -0.88417 -0.71713 -0.16503 -0.21991 -0.38886 -0.26111 0.58742 0.29305 -0.20466 -0.0059552 0.174
day 0.11626 0.53897 -0.39514 -0.26027 0.57706 -0.79198 -0.88374 0.30119 0.082896 -0.33443 -0.64467 -0.75366 -0.30356 0.07884 1.2252 -0.038627 -0.47341 -0.40556 -1.1165 -0.21352 0.49275 0.55574 0.38941 -0.22514 0.37775 -1.4233 -0.13409 0.10737 0.16528 0.35527 3.5733 0.76404 -0.59226 0.51366 0.12055 -0.36967 0.43251 0.086429 0.034554 0.082458 -0.8792 0.26134 -0.32132 -0.12652 0.25573 0.32818 0.024073 -0.39062 -0.10885 0.08451
cards -0.22017 0.34727 1.1569 0.32845 0.60458 -0.0091099 -0.76991 -0.64935 -0.11101 0.24167 -0.10889 0.65801 0.49546 0.15239 0.91798 -0.19077 -1.2394 -0.46784 0.50275 -0.90576 0.55152 -1.1283 -0.10667 0.34303 -0.50061 -0.94718 -0.50268 -0.31493 0.46163 -1.5819 2.4505 0.99847 -0.0033018 0.17781 0.26718 1.1831 0.64259 -0.02408 -0.54537 -0.62463 0.91547 0.10118 -0.27263 1.0338 -0.16738 -0.49298 0.058123 0.38277 0.64181 -0.7812
rest 0.48021 0.052461 -0.075499 -0.49294 0.56293 -0.13394 -0.6687 0.57151 -0.12299 -0.41295 0.21995 -0.012016 -0.2464 -0.21704 0.49805 0.52421 0.19902 -0.14816 -0.22035 -0.20401 -0.22217 0.1369 0.32133 0.2509 0.17578 -1.1599 -0.047711 0.23753 0.6222 -0.27197 3.3579 0.66388 0.054773 0.047149 0.081288 0.12085 0.062961 0.36136 0.11847 -0.28224 -0.53443 -0.24501 0.16648 0.21954 -0.6158 0.28791 -0.13205 -0.37609 -0.47475 -0.1640
sky 0.081092 0.94466 0.33658 0.42124 0.27977 -0.73385 -0.97879 -0.52544 0.13249 -0.2126 0.41312 0.19676 0.12114 0.87748 -0.16792 0.79765 -0.18026 0.23597 -1.9492 -0.84402 0.15311 1.0843 0.52439 -0.28308 0.17648 -0.37219 -0.68172 1.4701 0.48146 0.028964 1.9263 0.55726 0.092331 -0.2266 -0.41086 -0.23616 -0.12419 -1.0425 -0.22734 -0.58257 0.58536 0.20313 -0.2065 -0.41059 -0.39159 0.12677 0.10595 -0.52283 -0.0062389 -0.5691
long 0.46955 0.82963 -0.13828 -0.45398 -0.075682 0.45397 -0.37753 -0.31824 0.04492 -0.23272 -0.65296 0.0076419 -0.52617 0.29746 0.23553 0.19954 0.17268 -0.027087 -0.30702 -0.27463 -0.50451 0.06611 0.048848 -0.3727 0.28044 -2.012 0.32445 0.696 0.33016 0.052136 3.7978 0.016551 -0.029049 0.40461 -0.067641 -0.3214 -0.42906 0.34667 -0.40094 -0.26477 -0.54929 0.20108 0.12476 0.53417 -0.10315 -0.57693 0.26055 -0.3884 -0.81348 -0.08658
toward 0.045929 0.048226 -0.095069 -1.2391 0.2178 -0.19114 -0.11299 -0.13311 0.11174 0.37178 -0.30325 -0.66453 -0.51282 -0.02167 -1.0686 0.04299 0.39502 -0.3404 -0.039413 -0.47971 0.18011 0.66365 -0.53521 -0.43573 0.59382 -1.9756 0.58502 0.81645 0.86476 -0.19052 3.0737 0.91757 -0.48019 -0.67803 -0.61602 -0.97537 -1.0307 0.0076161 -0.57927 0.083661 -0.65611 -0.24497 0.22636 -0.17848 -0.45395 -0.48104 0.58597 -0.28615 -0.24281 -0.4122
tied -0.63665 -0.073039 0.13158 0.37977 0.78115 0.5929 -0.73338 0.089518 -0.085102 -0.25719 -0.39161 -0.48775 -1.5206 0.57305 0.052947 -0.79038 0.21974 -1.0856 -0.69662 -0.034968 -0.49115 -0.13489 0.39645 -0.32741 -0.66843 -0.8902 0.41839 0.21712 0.020801 -1.3093 2.202 0.58992 0.50603 0.44808 0.22114 0.012491 -0.05031 0.96386 0.15087 -0.32555 -0.52164 -0.43732 0.48638 0.34323 -0.33904 -0.041453 0.077628 -0.41281 0.094967 -0.6040
climb 0.56131 0.70493 1.3061 -0.81082 -0.20332 -0.82581 -0.43661 0.24457 0.015752 0.03522 -0.2122 -0.58499 -0.4484 -0.1087 0.23078 0.41276 0.7161 -0.45608 -1.0891 -1.0322 -0.13546 -0.32963 -0.24357 -0.16965 0.83918 -0.2935 -0.33241 0.20348 0.057276 0.42908 2.0318 0.52087 0.033305 0.72366 0.6403 -0.87142 -0.41357 -0.017222 0.22565 -0.88541 -0.97866 -0.56145 0.67011 0.010228 0.075269 -1.3355 1.6818 -1.0072 0.6146 -0.6977
related 0.87054 0.26877 -0.24812 0.77733 -0.10663 0.98854 0.21523 -0.9465 0.45147 0.076455 -0.089917 0.34068 -0.021292 -0.4038 0.85165 -0.22601 -0.69113 -0.051165 0.18378 -0.15451 0.54206 -0.44464 0.44811 -0.26601 -0.38775 -1.1067 -0.43698 -0.68586 0.14373 0.24357 3.3432 -0.42392 0.42776 -1.0883 0.19154 0.20925 -0.2615 -0.43105 -0.036849 0.66139 -0.73273 -0.13605 0.88171 0.84206 0.67846 -0.010663 -0.1246 0.94782 0.086436 0.003950
onto 0.18367 -0.36267 1.0415 -0.62077 0.24434 -0.12286 -1.0257 -0.20775 0.34965 -0.2704 -0.27152 -0.0039625 -0.38453 0.8661 -0.48944 0.21554 -0.021358 -0.19677 -0.35675 -1.2342 0.64656 0.042962 0.2576 0.3085 0.22965 -1.2599 0.50996 1.3099 0.65546 -1.2076 2.6732 0.087171 -0.22942 0.037396 -0.27199 0.48374 -0.10685 0.22842 0.0011577 -0.25561 0.44564 0.013378 -0.23154 -0.030508 -0.36187 -0.13811 0.50085 -1.4046 0.1492 -1.53
towards 0.22011 0.080221 -0.60181 -1.3866 0.10515 -0.086191 0.45967 -0.028729 0.064369 0.2667 0.24416 -0.41088 -0.49709 -0.78522 -1.261 0.1282 0.74114 -0.058918 -0.28087 0.13394 0.42173 0.3751 -0.26284 0.063576 0.82376 -1.2536 0.73156 0.47333 0.42811 0.16154 3.1428 0.67022 -0.10171 -0.67307 -0.4703 -0.71992 -0.65431 -0.018891 -0.96094 0.092432 -0.24984 -0.73462 0.06617 -0.64358 -0.54784 -0.54486 0.57894 -0.41583 0.16098 -0.6440
lifted -0.70005 -0.5358 0.2649 -0.22578 0.0049319 -0.6126 -0.1754 0.37018 0.5763 -0.10099 0.58895 -0.17313 -0.65977 0.28405 0.5024 0.73244 -0.43106 -1.0521 -0.704 -0.29456 0.37628 0.0049071 -0.17063 -1.1113 -0.34576 -1.2935 0.7568 0.74063 0.30451 0.19165 2.0252 0.32082 0.027894 0.5809 -0.43965 -0.25793 0.80605 -0.1137 -0.12567 -0.48798 -0.29907 -0.095409 0.54661 -0.17569 -0.2733 0.12926 -0.24941 -0.077889 0.072381 -0.9541
power 0.045752 0.061422 1.1936 0.38875 -0.16884 0.36553 0.51774 0.047422 -0.42848 0.69177 0.31957 0.28587 -0.45329 0.1207 -0.69699 0.57517 0.20169 0.74569 -0.027183 -0.61737 0.26269 -0.39027 -0.37649 -0.69831 -0.05726 -1.9656 0.095767 -0.52099 0.87712 0.88263 3.54 0.39965 -0.74971 -0.49914 -0.019178 0.2373 -0.4485 0.040627 -0.020372 0.18229 -0.24345 0.45404 -0.62969 0.13692 -1.0847 0.79392 -0.73323 -0.45858 -0.30716 -0.7348
brown -0.88497 0.71685 -0.40379 -0.10698 0.81457 1.0258 -1.2698 -0.49382 -0.27839 -0.92251 -0.49409 0.78942 -0.20066 -0.057371 0.060682 0.30746 0.13441 -0.49376 -0.54788 -0.81912 -0.45394 0.52098 1.0325 -0.8584 -0.65848 -1.2736 0.23616 1.0486 0.18442 -0.3901 2.1385 -0.45301 -0.16911 -0.46737 0.15938 -0.095071 -0.26512 -0.056479 0.63849 -1.0494 0.037507 0.76434 -0.6412 -0.59594 0.46589 0.31494 -0.34072 -0.59167 -0.31057 0.7327
rocky 0.27989 1.2882 -0.057345 0.6669 -0.82185 -0.13424 -0.93271 0.021919 0.056275 -0.69918 -0.81169 0.10894 0.1949 0.07442 -0.39113 0.95349 1.2223 -0.28582 -0.7478 0.16371 -1.1981 0.32613 0.21057 -0.0010891 0.042851 -0.38061 0.10741 1.265 0.43569 0.12424 1.7703 -1.0915 0.58268 -0.14823 0.30779 0.062292 -0.905 -0.48669 -0.21487 -0.78294 -0.64866 0.61104 0.19384 -0.01099 -0.26584 -0.30515 0.69328 -1.1985 -0.50792 -0.01219
hill -0.050184 1.3562 -0.22912 -0.090606 0.1833 -0.046274 -1.2659 0.25198 -0.082839 -1.2257 -1.3446 -0.16237 -0.53698 -0.86912 -0.6395 0.53816 1.0997 0.037835 -0.79349 -0.51448 0.085254 0.25414 -0.23952 0.20425 0.10976 -1.0304 0.11352 0.59469 -0.38303 -0.36382 2.2375 -1.2233 0.20479 -0.034504 0.68413 -0.75156 0.094078 -0.42281 0.20774 -0.3541 -0.26355 -0.32493 -0.56497 -0.05804 0.60483 -0.016805 0.062122 -1.0012 -0.4133 -0.01265
be 0.91102 -0.22872 0.2077 -0.20237 0.50697 -0.057893 -0.41729 -0.075341 -0.30454 -0.003286 0.44481 0.41818 -0.33409 0.032917 0.98872 0.91984 0.40521 0.01925 -0.1052 -0.79865 -0.36403 -0.087995 0.72182 0.11114 0.2153 -1.9411 -0.26376 0.4455 0.27586 -0.21104 4.0212 -0.061943 -0.32134 -0.81922 0.2108 -0.20414 0.72625 0.47517 -0.39853 -0.39168 -0.34581 0.025928 0.13072 0.73562 -0.15199 -0.18439 -0.67128 0.16692 -0.050063 0.1924
heavy -0.10338 -0.46242 0.19695 -0.32096 -0.96777 0.093447 0.31747 0.59026 -0.020371 -0.15691 0.018346 -0.49632 0.17841 -0.1718 -0.55629 -0.12826 -0.11482 0.41995 -1.0997 -1.2921 0.36797 -0.25081 0.16933 -0.95802 -0.40706 -1.1558 -0.55634 0.7256 1.3522 0.77601 3.5984 0.068468 0.63273 0.39554 0.12556 0.72624 -0.098045 -0.43297 -0.14837 0.16954 -0.09219 0.45344 0.39436 -0.68246 0.96844 -0.28436 -0.3374 -0.077905 -0.26795 -0.3266
cuts 0.43191 -0.31311 0.60581 -1.1497 -0.71614 1.2455 -0.046521 -0.23334 0.10264 -0.1221 -0.61322 -0.29537 0.041072 0.075551 0.57618 0.46405 0.15997 -0.4678 0.49221 -1.0668 0.57757 -1.0352 -0.48785 -0.869 -0.5001 -1.3268 0.014125 0.51779 0.090474 0.30544 3.1734 0.8547 0.24253 0.61354 -0.26089 -0.26348 0.11597 -0.14658 0.17784 -0.72512 -0.9122 0.35105 0.19508 -0.44129 -0.013908 -0.0090981 0.13019 1.0351 -0.45787 0.6481
descending 0.92328 0.6491 0.087311 -1.1203 0.055967 -0.018549 0.53186 0.52226 0.10935 -0.58316 0.16254 -0.083833 -0.136 0.75105 -0.61355 -0.063076 -0.56473 -0.66879 -0.57433 -0.56194 -0.22844 -0.60878 -0.055877 0.42208 0.63169 0.055921 -0.31664 0.75055 0.077101 -0.071078 1.5183 0.03542 0.48152 0.12393 0.011403 -0.20484 -0.18096 -1.0423 0.033633 0.58069 -0.58423 -0.31623 0.0053225 0.13232 -0.64683 -0.80418 1.7016 -1.138 -0.18636 -1.192
mixed -0.95344 -0.16611 -0.78351 0.41148 0.68609 0.019581 -0.28255 -0.014433 -0.35604 0.46309 0.35127 -0.73488 0.57381 -0.15802 0.039152 -0.096079 -0.16905 -0.29321 -0.3973 -0.99932 0.40445 0.16255 0.99153 0.30468 -0.031158 -0.35842 -0.36377 0.54392 -0.013005 0.4414 3.1508 -0.4886 0.74547 -0.3799 0.26751 -0.30849 -0.54263 0.051788 -0.29315 -0.75535 -0.045062 -0.27532 0.1004 -0.43747 1.1671 0.50984 0.12683 0.068338 0.14423 -0.4312
terrain 0.6764 0.11607 0.44005 0.40336 -1.1887 -0.35994 -0.24734 -0.31192 0.2797 -1.0751 -0.2804 -0.90769 0.3459 -0.40771 -1.0332 0.54126 0.84101 0.24011 -0.46301 -1.1722 -1.2821 0.78267 0.072734 0.27795 1.0512 0.16487 -0.77662 0.92741 1.312 0.8951 2.452 -0.81933 -0.041623 -0.53028 0.76289 0.56496 -0.92305 0.32914 -1.0556 -0.10583 -0.30183 0.19964 1.0031 0.48708 -0.37755 -1.0103 1.2285 -0.39408 0.40057 -0.3053
prepared 0.81889 -0.41446 -0.35081 -0.58853 0.44444 -0.58565 -0.31314 0.71597 -0.37133 -0.42536 -0.42892 0.25666 0.42608 0.20668 0.48406 0.35924 0.34052 -0.22343 0.29409 -0.8377 0.68867 0.0057344 0.86743 -0.14843 0.034475 -1.169 -0.047178 0.083689 0.20752 -0.3313 2.6788 0.14969 -1.3257 -0.29276 0.099565 0.18574 0.31382 0.59761 -0.11371 -0.30644 0.079302 -0.24791 0.26243 -0.36764 0.73302 0.56958 -0.34528 0.85927 -0.27341 0.5028
operate 1.0326 -0.69136 0.6487 -0.071774 -0.57696 -0.56127 -0.68288 -0.05353 0.44905 -0.35602 0.86067 0.39249 0.038925 0.2982 -0.72031 0.8336 0.091965 0.9492 -0.029391 -0.60635 0.8484 -0.23062 0.032344 0.89432 -0.64466 -0.89722 0.29887 -0.60273 0.64634 -0.1478 2.9942 0.33144 -0.36863 -0.14631 0.48259 -0.072306 0.14288 0.083298 -0.59927 0.75392 0.020408 -0.43486 0.63946 0.8492 -0.80567 -0.37004 -0.63297 -0.10298 -0.51722 0.3330
size 0.42496 0.62256 0.45534 0.21228 1.8412 0.56296 0.1742 -1.2293 -0.14219 -0.67129 0.12682 -0.29442 1.0891 0.066685 0.38325 0.58752 -0.61554 0.44571 -0.88851 -1.2684 -0.30284 -1.1256 -0.37254 -0.7837 -0.12274 -0.77839 -0.77191 0.37814 1.0284 0.36786 3.0833 0.21974 0.20265 0.050273 0.41587 0.40145 -0.17162 0.54531 0.11405 -0.58774 -0.031117 0.11179 0.42903 0.76551 -0.60878 0.055246 0.61772 -0.23703 0.11955 0.07126
below -0.1761 1.0209 1.1094 -0.94708 0.5056 -0.22629 -0.11544 -0.73112 -0.017969 -0.4826 0.065433 -0.5686 0.25488 -0.10177 0.48094 0.59728 -0.075237 -0.55092 -0.94344 -0.70571 0.048117 -0.53517 0.76428 -0.26941 0.043954 -0.3497 -0.31752 1.1031 -0.11156 0.41239 3.4776 -0.18738 1.1889 0.067102 0.37153 -0.40691 0.3275 -0.29483 0.55618 -0.48239 -0.44232 -0.27762 0.79069 0.42688 -1.0616 -0.35802 0.976 -0.25116 0.17372 -0.6894
flight 1.7306 0.284 -0.040613 -0.087372 -0.4819 -0.4278 -0.65733 0.31632 1.0554 -0.70909 0.57747 0.3628 -0.46717 0.97844 0.12695 -0.39876 -1.6432 0.34616 -1.9699 -0.40326 0.27543 0.7005 -0.24267 -0.0042508 0.34004 -1.6021 0.06427 0.035409 0.33291 0.25677 2.2611 0.95595 -0.55761 -0.12359 0.74087 -0.47427 0.89383 -0.022107 -0.38237 0.87486 -0.13263 0.069306 1.1166 0.44355 -0.84921 0.039591 0.34486 0.34012 -0.097281 0.2800
area 0.87797 0.20571 -0.12058 -0.010709 -0.053455 -0.68496 -1.2214 -0.32873 0.57296 -1.1168 -0.12084 -1.3698 0.58411 -0.94934 -0.7575 0.61905 0.85446 0.29599 -0.91012 0.41647 -0.18308 -0.099543 -0.34984 0.6359 -0.35521 -0.93343 -0.044097 0.71133 0.43015 -0.3832 3.7452 -0.42756 0.42294 -0.93751 0.47626 0.42313 -0.10811 -0.01229 0.30669 1.0182 -0.48771 0.25101 0.36161 -0.089203 -0.56762 -0.1957 -0.22157 -0.49112 0.15444 -0.4416
parked 0.91187 -0.44851 1.7006 -0.54891 0.62328 -0.41794 -1.4739 -0.17921 0.19556 -1.026 -0.18475 -0.97079 -1.0304 0.16174 0.23929 0.079514 -0.69838 1.3318 -0.3459 -1.5967 0.23308 0.3138 -0.66393 0.69949 -0.12973 -0.84241 0.21544 1.8434 1.2393 -0.60044 0.86538 -0.10683 0.16738 0.08503 0.95573 0.76217 0.4006 -0.099884 -0.29036 0.99261 -0.1782 -0.13781 0.1636 -0.20851 0.19172 -0.91001 -0.46018 -0.92765 0.76878 -1.164
launch 1.5473 -0.25673 0.83212 0.5942 -0.81063 -0.3485 -0.64324 -0.24313 0.59954 0.11125 0.089938 -0.35603 -0.31059 0.89063 -0.1782 0.55006 -0.25995 0.32735 -1.1683 0.15576 0.92775 -0.026655 -0.21769 -0.4945 0.0061179 -1.2744 0.16491 -0.242 0.25847 0.356 2.7494 0.13324 -1.6179 -0.054749 -0.27518 -0.061144 0.4639 -0.19499 -1.3143 -0.5233 0.098638 -0.50138 -0.31558 -0.74962 0.42616 -0.029063 0.23629 0.72041 -0.17806 0.2849
accident 0.79797 0.1941 0.15859 0.61177 -0.64852 0.87665 -0.32176 1.2285 0.9882 -1.069 0.26181 -0.5892 -0.93442 -0.030684 1.1215 -0.27773 -0.79296 0.90105 -1.2588 -0.34234 0.1943 0.83704 -0.2593 0.038467 1.4283 -1.6901 -0.61257 0.43188 0.84427 0.65964 2.0504 -0.26517 -0.064433 -0.52056 0.54708 0.18202 0.87808 -0.48411 0.90627 0.92603 -1.1569 -0.1257 0.60342 -0.33241 0.30704 -0.3992 -0.050585 0.22642 1.2958 -0.1374
only 0.24887 0.21487 0.22899 -0.12671 0.63105 0.51149 -0.4651 0.068288 -0.30937 -0.0070085 0.19937 -0.18019 -0.18827 -0.28697 0.78777 0.067418 0.20876 -0.077169 -0.69009 -0.42171 -0.39751 -0.050562 0.50292 0.10793 0.23047 -1.5503 -0.18474 -0.18316 0.26182 -0.2971 3.9005 0.27993 -0.16575 -0.19005 0.46649 -0.034911 0.57901 0.44878 -0.29949 -0.26163 -0.16132 0.022983 0.29275 0.46456 -0.59639 0.12681 -0.35771 0.029972 -0.14917 -0.08424
added -0.17103 0.21703 0.31748 0.47915 1.1086 -0.06995 -0.57346 -0.47357 -0.48532 -0.052025 0.28045 0.1789 -0.63417 -0.49482 0.45974 0.25677 0.071527 -0.80675 -0.18371 -0.70061 -0.010642 0.3412 0.19267 -0.9593 0.21649 -0.72056 0.6792 0.15118 0.037342 -0.21389 3.2059 0.21156 0.20647 -0.049772 0.31719 -0.39662 0.37759 0.45206 0.31934 0.42096 0.11205 0.39742 0.21851 -0.46591 0.20679 0.016375 -0.36296 0.64138 0.36659 0.4107
trunk 0.44001 0.906 1.015 0.0093891 0.27507 0.87486 0.17109 -0.6468 0.73085 -1.1599 -0.014634 0.13712 -0.12191 0.42191 -0.61702 0.48912 -0.70806 0.77699 0.35245 -0.44939 -0.083448 -0.82467 0.27435 0.79603 0.15733 -0.77468 0.29529 1.5818 0.64583 -0.55203 1.5487 -0.088946 0.62241 0.66909 0.50603 0.60923 0.023565 0.18692 0.00041897 0.00095259 0.061021 -0.16908 -0.085646 0.01245 -0.50579 -0.2845 0.56934 -1.2547 0.81183 -1.159
fully 0.91198 -0.62075 0.13359 -0.55621 0.52163 -0.069793 -0.025922 -0.13118 0.083477 -0.33172 0.90546 0.40609 -0.52669 0.041931 0.20343 1.0134 0.06254 0.68493 0.70865 -0.45628 0.0080169 0.33486 0.49961 -0.25207 0.31832 -1.0266 0.13582 0.2446 0.098784 -0.034296 3.2483 -0.17394 -0.3908 -0.87739 -0.108 0.085198 0.7004 0.66807 -0.84765 -0.62231 -0.18951 -1.2884 0.55147 0.23539 -0.67771 0.081242 -0.58495 0.25018 -0.39969 0.0289
vicinity 1.2851 0.18156 0.013297 -0.027023 0.15463 -0.64948 -0.25717 0.68273 -0.085368 -0.83903 0.11441 -0.62689 0.59562 -0.79107 -0.54785 0.53793 0.21961 0.24992 -0.9926 0.13368 0.078236 -0.18354 -0.22768 0.10142 0.2689 -0.24683 -0.18816 0.48153 0.82973 -0.28536 1.4815 -0.74778 0.41928 -0.77973 0.36644 0.22554 0.33279 -0.46769 -0.03957 1.0789 -0.22869 -0.28407 0.40411 -0.07325 -0.13306 -0.2809 -0.12249 -0.42115 0.045209 -0.3667
window 0.671 0.54311 0.29415 -0.63575 0.83018 -0.41634 -0.44106 -0.30563 -0.058522 -0.27404 -0.36557 -0.23126 -0.30265 0.8775 0.31363 0.7269 -0.86038 -0.58385 0.0091684 -1.2716 0.63286 0.25587 -1.4147 0.23315 -0.026914 -0.53057 0.32484 1.3938 0.61097 -0.41879 2.4428 -0.28673 -0.026513 -0.21118 -0.084848 0.85286 1.0359 -0.22112 0.33854 -0.67272 0.50597 0.065792 -0.4784 0.34359 0.097306 0.16625 1.1851 -1.1885 0.51436 -0.7596
checking 0.37207 -0.16965 0.58517 -0.46636 0.21484 -0.36023 -0.57515 0.10453 0.61315 -0.6019 0.021544 0.13939 -0.29017 0.21709 0.41926 -0.0024394 -0.52941 -0.57658 0.44789 -0.47532 0.30509 0.088804 0.18511 0.51516 0.022718 -0.92255 0.018668 0.38182 0.84169 -0.87154 1.7612 0.64565 -0.045947 -0.5588 0.09926 0.86932 0.29035 0.064007 0.45302 0.66591 0.54144 -0.027037 0.61743 0.99763 -0.025216 -0.93314 0.71736 1.1633 0.86581 -0.1427
performed 0.37507 0.055727 -1.1894 -0.58752 -0.52855 0.56694 -0.67384 0.52796 0.11074 0.66516 0.78674 0.12105 -0.11667 0.56226 0.33153 -0.43778 -0.039387 -0.14075 -0.75785 -0.43409 0.64261 0.56562 0.52038 -0.048349 0.27635 -0.20938 -1.1487 -0.61853 -0.79138 -0.86931 2.829 -0.16812 0.36433 -0.58635 0.41103 0.371 1.6462 0.39874 -0.39308 0.20952 -0.4735 -0.20673 -0.65032 -0.59985 0.060959 -0.59356 -0.062549 -1.0465 -1.0649 0.9086
quickly 0.56036 -1.1257 0.55507 -0.71007 0.059383 -0.29997 -0.78756 0.70269 -0.2864 -0.15299 0.36951 0.28308 -0.61024 0.0058911 0.22412 0.64999 -0.23358 -0.47678 -0.12418 -0.7531 0.26407 -0.049331 0.59658 -0.23219 0.55754 -1.5649 0.2196 0.26784 0.72161 -0.13073 3.0699 0.21293 -0.14069 -0.87782 -0.36846 0.11815 -0.27351 0.51589 -4.399e-06 -0.54707 -0.26419 -0.23358 -0.27178 -0.16913 0.074022 0.10568 0.085594 -0.5575 -0.27034 -0.259
none 0.49832 0.067887 0.3148 0.014511 0.44189 0.55864 -0.36706 0.3218 -0.33241 0.035211 -0.18403 -0.18291 -0.27835 -0.23996 0.84767 -0.16061 0.11946 -0.20623 -0.27584 -0.60271 -0.48291 0.37221 0.87626 -0.10852 0.27507 -1.0665 -0.706 0.00017472 0.44885 -0.38143 2.6425 0.32555 0.13446 -0.7708 0.48336 0.021842 0.48157 0.18719 -0.54521 -0.04428 -0.5281 -0.14104 0.45826 0.52813 -0.26209 0.052705 -0.87364 0.40092 -0.17774 0.07094
set -0.087659 0.11144 0.1543 0.3051 0.40663 -0.017369 -0.15209 -0.13592 -0.14259 -0.050335 -0.32163 -0.32965 -0.7775 0.54234 0.71429 0.0045754 0.42766 -0.74396 -0.37613 -0.63296 0.51588 -0.078446 -0.2662 -0.164 -0.015405 -1.1246 0.15969 -0.3793 0.069653 -0.25449 3.6201 -0.05886 -0.6494 0.10255 0.058746 0.1753 0.63647 0.46642 -0.34624 -0.31667 0.011133 -0.032083 0.34644 -0.15786 -0.19963 0.50825 0.41812 -0.38405 -0.081924 -0.5
fighting 0.65951 -1.0182 0.30227 -0.29145 -0.12109 -0.0027095 0.43368 0.29875 -0.023725 -0.65935 -0.27542 -1.0712 -1.1848 -0.77099 0.076184 -0.19794 0.39889 0.21147 -0.58409 0.4362 -0.90213 0.63662 0.62656 -0.092278 -0.44475 -1.5751 -0.079459 -0.50726 0.88098 0.70386 3.2172 0.48876 -0.96824 -0.058092 -0.48287 0.65347 -0.87451 -0.88172 -0.59077 0.022631 -0.58747 0.084746 -0.052803 -0.34747 0.70104 -0.18247 0.0040658 -0.10292 -1.0144 -0.5657
breaking -0.75307 -0.01458 -0.075133 0.10766 -0.011661 0.41505 0.072856 0.49378 0.14302 0.27014 -0.29928 -0.49729 -1.1358 0.57973 0.55898 -0.31587 -0.057323 -0.72313 -0.40444 -0.23284 0.18744 0.32356 -0.0168 -0.33481 0.22256 -1.3342 0.49411 0.08815 0.80475 -0.17204 2.7073 0.12706 0.09304 0.33197 -0.70747 0.23589 0.30587 0.16879 -0.18252 -0.12134 -0.23045 -0.15842 0.053029 0.4978 0.1169 0.044732 0.23904 -0.4594 -0.45749 -0.623
snake 0.49251 -0.24279 -0.49748 0.28443 0.16984 0.61016 0.20294 -0.19734 0.93474 -0.11809 -0.26342 0.97142 1.0427 0.60017 -0.46936 0.10087 0.60649 1.1277 -1.1823 -0.29334 -0.72885 -0.46904 1.1104 0.27504 0.48043 -1.3031 -0.58713 0.90264 0.089552 -0.60348 1.1117 -0.85367 -0.13902 0.87767 -0.19307 0.10299 -0.83688 -0.87202 0.46529 -0.22325 -0.49207 0.33727 -0.49699 0.95006 0.75007 -0.21252 0.47244 -1.4552 0.11704 -0.6148
and 0.26818 0.14346 -0.27877 0.016257 0.11384 0.69923 -0.51332 -0.47368 -0.33075 -0.13834 0.2702 0.30938 -0.45012 -0.4127 -0.09932 0.038085 0.029749 0.10076 -0.25058 -0.51818 0.34558 0.44922 0.48791 -0.080866 -0.10121 -1.3777 -0.10866 -0.23201 0.012839 -0.46508 3.8463 0.31362 0.13643 -0.52244 0.3302 0.33707 -0.35601 0.32431 0.12041 0.3512 -0.069043 0.36885 0.25168 -0.24517 0.25381 0.1367 -0.31178 -0.6321 -0.25028 -0.3809
ground 0.63082 -0.27687 0.035178 0.0081741 0.61373 -0.32264 -0.29319 0.33809 0.25377 -1.144 -0.18441 -0.34475 -0.13245 -0.15085 -0.73892 0.56012 0.50134 0.12671 -1.3273 -0.75821 -0.10625 0.22865 0.51849 -0.41846 -0.16001 -1.0335 0.56691 0.93699 1.185 0.21315 3.4351 -0.11781 -0.16744 -0.35474 -0.058912 0.53705 0.061975 0.12841 -0.11677 -0.17772 0.17891 -0.46706 0.092974 0.20175 0.63448 0.47315 -0.01733 -0.16345 -0.33996 -0.4683
cross 0.34047 0.98554 -0.51013 -0.32838 0.19557 -0.00030261 -0.51588 -0.0040674 1.0142 -0.84201 0.24186 0.076132 -0.65614 -0.041135 -0.41204 -0.42122 0.83162 -0.75462 -0.51169 -0.37273 -0.12924 0.015459 -0.38076 -0.086069 -0.096603 -1.373 0.91499 0.20725 -0.34279 -0.67425 2.8726 0.39156 -0.47856 -0.017865 -0.3887 0.31548 -0.028368 -0.11992 -0.44877 0.40369 0.499 0.15104 0.44179 -0.44458 0.22357 -0.80658 0.51544 -0.37369 -0.17088 -1.064
doing 0.022106 -0.37986 -0.24854 -0.52531 0.18409 -0.14138 -0.38693 0.10206 0.014069 0.2995 -0.30555 0.41664 -0.76563 0.077208 0.7836 0.068687 0.70245 0.41951 0.33918 -0.71566 0.27352 0.88339 0.36778 0.19037 0.73786 -1.7281 -0.69032 -0.087871 0.85543 -0.89427 3.0578 0.79509 -0.19022 -0.54251 -0.33164 0.16021 -0.066689 0.56369 -0.041352 -0.095785 -0.52057 -0.0386 0.060081 0.39183 0.17933 -0.54933 -0.14474 0.1363 -0.31229 1.107
freeing 0.47671 -0.37637 0.63498 -0.79941 0.76705 -0.16133 0.19725 0.72659 0.28428 0.71284 0.0097196 0.13089 0.085466 0.52972 0.043753 -0.43872 0.3375 -0.4101 0.76407 0.29658 0.57872 0.78635 -0.062874 -0.28982 -0.1191 -0.37688 0.869 -0.78861 0.74112 0.19671 1.2298 -0.06698 -0.69706 0.19172 0.12876 0.27771 -0.26511 -0.48021 -0.29055 -0.042755 -0.28668 -0.42506 0.8154 -0.077393 -0.094101 -0.81394 -0.45966 -0.094699 -0.37679 -0.5476
rescue 1.8746 -0.6494 0.68083 -0.46993 -0.12724 -0.2559 -1.0157 0.86864 0.9053 -1.0993 -0.014896 0.25862 0.036353 1.0478 -0.34876 -0.74132 0.20032 0.082794 -0.53759 -0.31249 0.38829 0.93604 -0.59411 -0.93228 0.58493 -0.91048 -0.1163 -0.42602 -0.23538 -0.068466 2.6089 0.37022 -0.46513 0.004791 -0.0075694 0.95028 0.17974 -1.0009 0.8443 -0.65559 -0.64439 -0.43673 0.89984 -0.97502 0.60669 -0.48278 -0.011224 0.27504 0.4805 -0.09954
arms 0.098197 -0.16687 -0.17933 -0.72433 0.64661 0.55002 0.25122 -0.1413 0.77997 -0.73622 0.32285 0.24713 -0.81452 -0.20261 -0.14091 0.12674 0.062568 0.19948 0.13676 -0.45139 0.66848 -0.060605 0.019776 -0.63376 -1.022 -2.3218 0.31036 0.57952 0.62728 -0.37394 2.4885 -0.23077 -0.67139 0.40401 0.11677 0.52004 -0.37294 -0.29296 -0.72288 0.091957 0.28332 -0.11785 0.60758 -0.62435 0.63902 -0.41546 -0.18301 0.28531 -0.85568 -1.312
end -0.04116 0.22243 -0.11458 -0.33628 0.038872 -0.066803 -0.58309 -0.19971 -0.51087 -0.29037 -0.49177 -0.13533 -1.0737 -0.4156 0.81837 0.47902 0.078869 -0.60318 -0.5732 0.065613 0.21122 -0.20912 -0.27305 -0.21332 -0.077237 -1.4695 0.46413 0.1222 0.80235 0.25796 3.7452 0.14293 -0.51556 0.34662 0.12782 -0.21896 0.15115 -0.2969 -0.37945 -0.41931 -0.74006 -0.10499 -0.31756 -0.23893 -0.40606 0.24247 0.55832 -0.1801 -0.37332 -0.1803
heavily 0.28875 -1.0875 0.24023 -0.576 -0.26819 0.02336 -0.91199 -0.38983 -0.37525 0.011641 -0.087563 -0.69523 0.093855 -0.24785 -0.58875 0.10466 0.13953 0.37751 -0.0083827 -0.27266 -0.057667 0.14845 0.40156 0.049131 -0.39602 -1.1471 0.024167 0.92286 0.10272 -0.0055531 3.0922 -0.4289 1.029 -0.39675 0.0054162 0.22252 -0.5607 0.34936 -1.0105 -0.23781 -0.25341 0.04704 0.55464 -0.016374 -0.0043359 -0.39199 -0.97943 -0.16298 -0.14631 -0.5142
covered 0.060018 0.75612 -0.21928 -0.16007 -0.22649 0.7068 -0.79424 -0.60981 0.41229 -1.0489 -0.31504 -0.4372 0.30431 0.25326 0.37445 0.2146 0.044599 -0.038809 0.13944 -0.81201 0.044274 0.17807 0.69836 -0.3157 -0.63237 -0.37578 -0.29215 1.4718 0.3666 -0.36132 2.8582 -0.74644 0.3198 0.029636 -0.44378 0.75967 0.28336 0.19005 0.26084 -0.087678 -0.11017 0.075037 0.5913 0.22489 -0.12529 -0.26946 -0.33783 -0.85843 -0.49003 -0.909
side 0.20712 0.45525 -0.59307 -0.37613 0.082234 0.22413 -0.31312 0.71027 -0.61976 -0.49796 0.13477 0.0056405 -0.77043 -0.19784 -0.70032 0.23177 0.815 -0.061393 -0.73146 -0.40748 -0.52122 0.052144 0.010133 0.68707 -0.21358 -1.5289 0.53722 1.1833 -0.022483 -0.55043 3.5116 0.5666 0.25898 -0.065076 0.34411 0.40766 0.25558 0.43896 -0.22385 -0.82314 0.51137 -0.13294 -0.16608 -0.23841 -0.12116 0.43584 0.013572 -0.14499 0.5076 -0.7508
plants 1.1906 0.32102 0.31505 0.64749 -0.54686 0.59216 -0.82445 -0.59137 0.37888 0.060329 0.45188 0.031081 1.3727 -0.62651 0.50162 0.60337 0.39887 1.4485 0.047105 -1.606 0.0073244 -1.7948 0.2665 -0.54483 0.025827 -0.29686 0.49592 0.31312 1.1217 -0.0043372 2.8133 -0.63703 -0.31015 -0.58177 0.065992 0.059109 -0.55574 0.80625 0.39196 0.37503 -0.72284 -1.288 0.9687 0.019506 1.6017 0.99096 -0.64792 -0.54949 -0.93881 0.003746
shallow 0.83755 0.80554 -0.3245 0.039648 -0.23391 0.42081 -0.077836 0.83258 0.043961 -0.4059 -0.51658 0.2947 1.1186 1.3419 -0.88685 0.10218 1.2994 -0.026978 -0.9123 -0.307 -0.53013 0.2063 1.2073 -0.16717 0.75166 0.20164 0.19385 1.5082 1.3571 0.24179 2.3927 -0.81772 0.72659 -0.028138 -0.40238 0.75526 -0.70057 0.2793 0.63791 -0.21286 -0.15331 -0.15084 0.63515 0.99531 -0.6028 -0.13218 0.30314 -0.4678 0.24769 -0.4487
instrument -0.027536 -0.18199 -0.52704 -0.10238 0.1435 0.55424 0.63059 -0.11191 -0.3073 0.79177 1.196 0.83672 0.53949 1.443 -1.1401 -0.079838 -0.44369 0.31609 -0.1144 -0.94798 0.27831 -0.0063468 -0.86065 -0.60935 0.57386 -0.70464 -0.87318 -0.22779 -0.0019396 -0.36315 2.6052 -1.0597 0.17623 -0.17568 0.57837 0.22126 0.89398 0.20184 -0.22322 0.27351 0.33916 -0.16955 0.29055 0.19689 -0.2723 0.36239 0.76345 0.43211 -0.58169 0.01622
his -0.033537 0.47537 -0.68746 -0.72661 0.84028 0.64304 -0.75975 0.63242 -0.54176 0.11632 -0.20254 0.63321 -1.2677 -0.17674 0.35284 -0.55096 -0.65025 -0.3405 -0.31658 -0.077908 -0.11085 0.97299 -0.016844 -0.73752 0.47852 -2.7069 -0.42417 -0.053489 0.018467 -0.11892 3.3082 0.17864 -0.50702 -0.22894 0.24178 0.5698 0.097113 0.95422 0.0076093 -0.54154 0.09828 0.41533 -1.116 0.0050954 -0.14975 -0.45133 -0.081188 -0.62173 -0.022628 -0.438
steep 0.57415 0.45546 0.43146 -0.51349 -1.2317 0.061572 -0.43469 0.22368 -0.14549 -0.12488 -1.1357 -0.80341 0.064607 -0.60052 -0.39222 0.5256 0.63885 -0.98737 -0.41769 -1.528 0.046214 -0.68852 -0.7986 -0.24945 0.28287 -0.25364 -0.099124 1.4411 0.60831 0.75167 2.7172 -0.55379 1.2575 0.84325 0.75704 -0.65585 -0.76346 -0.089226 0.10686 -0.65436 -0.93692 0.29238 0.55632 0.41253 0.15717 -1.3829 1.3099 -0.3814 0.87076 -0.6985
sea 1.3549 0.96469 -0.65964 0.3297 0.025316 -0.39186 -0.45001 0.089164 0.59136 -1.0542 0.25812 0.74352 1.2827 0.52466 -0.42253 0.11421 0.75232 0.33939 -2.3079 0.034455 -0.095369 -0.074015 0.92792 -0.64279 0.59323 -1.0927 0.26985 0.94022 0.96001 0.092628 3.0371 -0.25415 -0.097124 0.48477 -0.004144 0.058441 -0.70393 -0.85605 -0.34921 0.57608 -0.34497 -0.09798 1.5362 -0.42353 -0.10344 -0.063314 -0.078199 -0.54478 -0.20832 -0.9759
over 0.12972 0.088073 0.24375 0.078102 -0.12783 0.27831 -0.48693 0.19649 -0.39558 -0.28362 -0.47425 -0.59317 -0.58804 -0.31702 0.49593 0.0087594 0.039613 -0.42495 -0.97641 -0.46534 0.020675 0.086042 0.39317 -0.51255 -0.17913 -1.8333 0.5622 0.41626 0.075127 0.02189 3.784 0.71067 -0.073943 0.15373 -0.3853 -0.070163 -0.35374 0.074501 -0.084228 -0.45548 -0.081068 0.39157 0.173 0.2254 -0.12836 0.40951 -0.26079 0.090912 -0.60515 -0.982
looking 0.48642 0.019708 0.16084 -0.28113 0.89912 -0.51431 -1.0537 0.026241 -0.12318 -0.048724 -0.21479 0.10296 -0.59197 0.5485 0.41899 0.49074 0.2594 -0.029574 0.10371 -1.0044 -0.19932 0.68664 -0.012095 0.15971 0.27668 -1.6274 -0.50144 0.65354 0.49399 -0.6023 2.8011 0.52823 0.14562 -0.47027 0.099409 0.042991 -0.6394 0.49012 -0.054747 -1.0175 -0.32962 0.10784 0.37883 0.30918 0.61277 -0.10532 0.097498 -0.050574 0.19356 0.1756
stick -0.68109 -0.12103 0.0064458 -0.62251 0.64409 0.62422 0.089084 -0.40651 -0.70044 -0.090886 0.073429 0.52924 -0.46728 0.98804 -0.35202 0.61007 0.48273 -0.020765 0.17702 -1.0506 -0.18219 -0.20315 0.40692 -0.11904 0.12599 -1.3211 0.45619 0.83609 0.93476 -1.3555 2.3645 0.78099 -0.95821 0.77737 -0.57549 0.077742 0.13054 0.095856 0.32933 -0.17614 0.44022 -0.22748 -0.11906 0.31006 0.61023 0.28674 0.51585 0.24363 -0.047791 -0.2831
work 0.51359 0.19695 -0.51944 -0.86218 0.015494 0.10973 -0.80293 -0.33361 -0.00016119 0.010189 0.046734 0.46751 -0.47475 0.11038 0.39327 -0.43652 0.39984 0.27109 0.4265 -0.6064 0.81145 0.4563 -0.12726 -0.22474 0.64071 -1.2767 -0.72231 -0.6959 0.028045 -0.23072 3.7996 -0.12625 -0.47967 -0.99972 -0.21976 0.50565 0.025953 0.80514 0.19929 0.28796 -0.15915 -0.30438 0.16025 -0.1829 -0.038563 -0.17619 0.027041 0.046842 -0.62897 0.3572
tractor -0.098929 -0.84092 1.1082 -0.26244 -0.41957 0.51172 -0.81866 -0.039051 0.57984 -0.81259 0.22796 -0.62604 -0.36989 0.21515 -0.34682 -0.41604 -0.30401 1.8816 -0.24553 -1.4848 0.47031 -0.52632 -0.90958 0.21206 0.4447 -0.6484 -0.12667 0.61465 1.2244 -0.062222 0.70598 -0.53976 -0.30714 1.0124 0.7463 0.62213 0.3322 0.33625 0.058141 0.5329 -0.052329 -0.53548 -0.1129 -0.76054 0.69256 -0.43562 0.11896 -0.87168 0.24706 -0.2641
full 0.16809 0.61767 -0.41634 -0.60138 0.4687 -0.036198 -0.21118 -0.16867 0.45501 -0.16094 -0.008203 0.0066006 -0.3118 0.10166 0.47197 -0.035625 -0.15962 -0.036652 -0.022693 -0.94248 0.32916 0.37139 -0.10399 -0.46078 -0.17817 -1.1402 -0.32809 0.26368 0.10645 0.11089 3.7261 0.50193 -0.89473 0.090049 0.19136 0.29865 0.55301 0.033112 -0.16181 -0.67191 0.11974 -0.21346 -0.25396 -0.095459 -0.74858 -0.01529 0.25935 0.28064 -0.47626 -0.08139
following 0.39504 0.17819 -0.58475 0.053913 -0.3867 0.27252 -0.57967 0.41618 -0.40824 -0.38266 0.19381 -0.2418 -0.86562 -0.41553 0.67027 -0.10716 -0.77751 -0.92425 -0.88645 0.37344 0.47515 -0.38801 0.27171 -0.22085 -0.34034 -1.2374 -0.0046157 -0.27729 -0.26562 0.91297 3.611 -0.16625 -0.20335 -0.59424 0.27874 0.1012 0.52864 -0.25221 -0.5081 -0.14184 -0.43874 -0.25075 -0.61961 -0.3705 -0.26175 0.11614 0.0738 0.2144 0.23219 -0.6017
outside 0.67751 0.22249 -0.032198 -0.16374 0.57229 -0.93367 -0.82656 0.31582 0.02441 -0.51036 -0.26261 -1.3476 -0.10487 -0.0037803 -0.067118 0.60251 0.25636 0.25521 -0.45102 -0.54298 0.66872 0.79584 -0.41457 0.71251 -0.39771 -1.7351 0.15267 0.78654 0.15484 -0.64701 3.0757 0.11801 -0.19143 -0.75106 -0.11382 0.17232 0.16219 -0.10994 0.24001 0.67559 -0.087003 0.32909 0.1901 0.26918 0.30016 -0.14438 -0.41624 -0.70384 -0.13109 -0.7552
some 0.92871 -0.10834 0.21497 -0.50237 0.10379 0.22728 -0.54198 -0.29008 -0.64607 0.12664 -0.41487 -0.29343 0.36855 -0.41733 0.69116 0.067341 0.19715 -0.030465 -0.21723 -1.2238 0.0095469 0.19594 0.56595 -0.067473 0.059208 -1.3909 -0.89275 -0.13546 0.162 -0.4021 4.1644 0.37816 0.15797 -0.48892 0.23131 0.23258 -0.25314 -0.19977 -0.12258 0.1562 -0.31995 0.38314 0.47266 0.877 0.32223 0.0013292 -0.4986 0.5558 -0.70359 -0.5269
conversation 0.55757 0.73057 -0.60744 0.29209 0.70341 0.0157 -0.52776 0.69176 -0.76899 0.12439 -0.84008 0.36278 -0.38898 0.69902 0.74704 -0.26093 -1.0068 -0.13428 0.49166 -0.35737 0.65272 1.2923 0.81358 0.49689 1.2772 -1.3159 0.44234 0.65405 0.5313 -0.012682 2.1589 -0.25534 -0.5798 -0.66636 -0.05259 -0.12432 -0.30012 0.373 -0.51449 0.28095 0.45695 0.58785 -1.1294 0.47395 0.27209 -0.37777 0.55338 0.48503 -0.44908 0.5366
door 0.42415 0.36651 0.41755 -0.36553 0.76421 -0.20803 -0.47949 0.062353 0.079832 -0.58326 -0.81709 -0.12319 -0.78083 1.1262 0.26773 0.55588 -0.47966 0.061101 0.67107 -1.3272 0.62269 0.48496 -0.70052 0.39474 -0.013408 -1.5894 0.17207 1.1837 0.3904 -0.82389 2.4365 -0.097752 -0.68598 0.10025 0.14648 0.39399 0.67725 -0.20972 0.15356 -0.37285 0.020997 0.0029065 -0.35128 0.21857 0.33799 0.03409 0.45854 -1.003 0.21361 -0.6107
rising -0.47454 0.21973 1.0423 -0.8304 0.0046615 -0.022235 -0.022441 -0.42116 0.069025 0.37851 0.0020138 -0.40552 -0.058475 -0.57331 0.061776 0.21562 -0.22328 -0.59646 -0.63303 -0.43692 0.64507 -0.63606 0.038926 -0.56232 0.014693 -1.1286 0.051998 0.12685 0.43865 1.5701 3.1061 0.54559 1.4937 -0.094951 -0.25568 -0.58547 -1.1543 -0.77658 0.28627 -0.52179 -0.973 0.34706 0.42218 -0.33591 0.5924 0.003039 0.21059 -0.34184 0.21768 -0.5810
tank 0.13626 -0.20368 1.1783 -1.0363 -0.10807 0.054619 -0.16613 -0.39131 0.29403 -1.2731 0.16228 -0.68057 -0.37228 1.0188 -1.459 -0.018011 0.61527 1.2517 -1.3608 -0.58858 0.47997 -0.050947 0.06678 -0.78246 -0.28687 -1.3471 -0.65299 0.87164 0.49721 0.67426 2.0303 -0.68193 -0.34647 0.1881 -0.1362 0.87152 0.44572 0.14642 0.61198 0.36541 0.74428 -0.55035 0.19125 -0.57986 1.0694 0.086676 -0.023788 0.31006 0.086651 0.04465
other 0.64756 0.16 0.029191 0.35118 0.089119 0.61115 -0.66362 -0.51724 -0.46521 -0.08845 0.0502 0.26329 0.12407 0.043832 0.17283 0.01317 0.14168 -0.15827 -0.10427 -0.9307 0.21646 -0.10753 0.62087 0.36761 -0.48144 -1.28 -0.55152 -0.72023 -0.17097 -0.47993 4.0165 0.47054 0.093614 -0.86341 0.50881 0.33353 -0.35962 -0.16648 -0.31803 0.49003 -0.36697 0.32051 0.70932 0.62878 0.70128 0.1302 -0.73769 0.10325 -0.30964 -0.4421
closing -0.14751 0.038433 0.12492 0.15691 0.19315 -0.51676 -0.1671 -0.066485 -0.13887 0.10533 -0.92789 -1.0525 -0.68655 -0.068409 0.51968 0.010298 -0.68406 -0.91302 -0.52775 -0.4688 1.2915 0.11163 -0.19696 -0.45994 -0.40197 -0.57724 0.4369 0.41291 0.20628 0.12418 2.9045 0.019821 0.45289 0.50707 0.21297 -0.93277 0.45369 0.075346 -0.092654 -0.16939 -0.54644 -0.46432 0.41243 0.34106 -0.037331 0.040778 0.27333 0.079969 0.07467 0.04514
walls 0.57437 0.71859 0.37974 -0.88735 0.18664 -0.27223 0.12316 -0.57362 -1.0519 -0.71961 -0.75138 -0.44544 -0.16075 0.18487 -0.61268 0.88985 0.20769 -0.67696 0.22036 -0.91647 0.033854 -0.13681 -0.56618 -0.86384 -0.29667 -0.33677 -0.52707 1.5823 0.7036 -1.0024 2.6836 -0.95065 0.74609 -0.55243 -0.74371 1.5324 0.68571 0.12748 0.34852 0.1687 0.3191 -0.1142 0.47315 0.40862 0.50208 0.3437 0.075824 -1.8939 -0.23625 -1.58
put 0.076143 -0.24717 0.40116 -0.44052 0.47109 -0.1377 -0.71907 0.13098 -0.17572 -0.03577 -0.25182 0.22588 -0.76386 0.24249 0.46617 0.10661 0.42314 -0.54628 -0.23715 -0.65187 -0.077369 0.28766 0.10809 -0.45786 0.067866 -1.8636 0.1389 0.17133 0.24996 -0.6366 3.2279 0.56937 -0.653 0.055097 -0.28294 0.17188 0.17931 0.49549 0.33623 -0.49653 0.10105 0.1834 0.095534 0.049611 -0.028313 0.27312 -0.24849 0.14717 0.11502 -0.2516
interior 0.66034 0.319 0.00083186 0.43565 0.57365 -0.48197 -0.28345 -0.46648 -0.85161 -1.1219 -0.18052 -0.42543 0.032164 0.81657 0.046748 0.088086 0.025548 -0.25578 1.044 -0.63455 -0.34609 0.067496 -0.42452 -0.6652 -0.38089 -0.65542 -0.12453 1.1366 -0.36148 0.95114 2.5362 -1.0983 -0.26616 -0.55438 0.5122 1.475 0.52557 0.94232 -0.040833 1.1946 0.0088216 1.7131 0.54266 -1.0466 -0.1709 0.010098 -1.0903 0.25861 0.84539 -0.5711
around 0.77604 0.22584 0.45044 -0.70814 0.14959 -0.76201 -0.59769 -0.37123 -0.49107 -0.81828 -0.61185 -0.96962 -0.02998 -0.26391 0.69513 0.38294 0.067117 0.42452 -1.2652 -0.54603 0.65743 0.30119 0.63752 0.40919 0.29723 -1.1203 0.1117 0.49074 0.43661 -0.40743 3.6976 0.3907 0.10636 -0.035762 -0.4579 0.19091 -0.38336 0.060834 0.20348 0.60765 -0.19867 0.21351 0.31352 0.472 -0.23803 -0.12381 0.43955 -0.97437 -0.78565 -0.817
he -0.20092 -0.060271 -0.61766 -0.8444 0.5781 0.14671 -0.86098 0.6705 -0.86556 -0.18234 0.15856 0.45814 -1.0163 -0.35874 0.73869 -0.24048 -0.33893 0.25742 -0.78192 0.083528 0.1775 0.91773 0.64531 -0.19896 0.37416 -2.7525 -0.091586 0.040349 -0.064792 -0.31466 3.3944 0.044941 -0.55038 -0.65334 0.10436 0.016394 0.24388 1.0085 0.31412 -0.33806 -0.16925 0.10228 -0.62143 0.19829 -0.36147 -0.24769 -0.38989 -0.33317 -0.041659 -0.01317
american -1.0988 0.48544 -0.5004 0.1491 0.41042 0.32605 -1.4592 -0.52025 -0.088054 -0.2384 0.43632 -0.14949 0.12491 0.71661 0.037183 -0.60692 0.034298 0.017432 -0.87692 -0.21223 0.10612 0.61057 -0.44873 -0.03961 -0.23466 -2.0954 -0.85982 -0.97872 0.068549 0.2635 3.0317 -0.38539 -0.17444 -0.47553 -0.083736 -0.65646 -0.768 -0.30997 -0.44042 -0.34611 -0.15336 0.0090824 1.2306 -0.35248 0.87702 0.31172 -0.54675 -0.10366 -0.86998 0.4267
country -0.13531 0.15485 -0.07309 0.034013 -0.054457 -0.20541 -0.60086 -0.22407 0.42615 0.0418 0.1217 -0.55817 -0.08953 0.0089426 0.59164 0.34329 0.64798 0.30052 0.48494 0.16524 -0.073664 0.31182 -0.083803 0.27026 0.10724 -1.7704 -0.36235 -0.15811 0.060038 0.67873 4.0124 0.43091 -0.26325 0.0561 -0.40052 -0.088487 -0.55339 -0.17892 -0.57372 -0.19628 -1.1624 0.12145 0.55842 -0.6194 -0.20974 0.49895 -1.0743 -0.028168 -0.18904 -0.676
finger -0.60646 -0.35457 -0.25565 -0.18297 0.5825 0.745 0.29787 0.42923 0.55425 -0.21783 -0.15383 0.25211 -0.60353 0.42484 -0.57507 0.25892 -0.35803 -0.90927 -0.032697 -0.28229 -0.25652 0.050392 0.88424 -0.2957 0.41241 -1.5822 -0.11569 1.0907 0.36523 -1.3367 2.164 0.16526 0.50666 0.7635 -0.45833 0.41421 -0.086376 0.045412 0.4428 0.15444 0.1579 0.46402 -0.96741 0.62775 0.63966 -0.18643 0.89597 0.072514 -0.1764 -0.9523
seriously 0.24542 -0.74245 0.32527 -0.53353 0.13794 0.57658 -0.1167 0.82409 0.20641 -0.28388 0.2351 -0.34419 -0.89032 -0.012591 0.41692 0.36625 -0.095458 0.24033 0.26887 -0.013171 -0.3875 1.2816 0.26733 -0.17786 0.80134 -1.7217 -0.25902 0.29192 0.81986 0.086492 2.3398 0.40443 0.28637 -0.89733 -0.04286 0.11041 0.32532 -0.17067 -0.21507 0.13724 -1.2002 -0.50078 0.81405 -0.20074 0.489 -0.20587 -1.0318 0.56512 0.63105 0.1987
still 0.47689 -0.076447 0.36768 -0.3947 0.47169 -0.038062 -0.78328 0.14814 -0.30044 -0.072707 -0.030916 -0.16829 -0.53569 -0.16432 0.78732 0.52064 0.15539 -0.0074076 -0.0546 -0.6647 -0.51966 0.40417 0.24546 -0.0038311 0.35098 -1.8132 -0.51917 0.50432 0.49551 -0.085036 3.5993 0.29352 0.26488 -0.36079 -0.013431 -0.11533 -0.1946 0.31915 0.014437 -0.42448 -0.56024 0.023142 0.31161 0.44714 0.039094 0.23879 -0.45699 -0.10113 -0.38907 -0.3715
dead 0.9396 0.16544 0.81367 -0.48494 1.2837 0.45841 -0.65686 0.45467 0.12991 -0.5745 -0.35387 -0.79589 0.19424 0.3857 1.1416 -0.4185 -0.045377 0.26111 -0.86682 0.36554 -0.67914 1.154 0.84681 0.1251 0.55768 -1.3182 -0.94527 -0.075978 0.27151 -0.11157 2.6132 -0.4187 -0.186 0.23283 0.17973 0.69716 0.54133 -1.2404 0.40727 0.31813 -0.82175 0.33472 0.35713 -0.49532 0.8755 0.085996 -0.90086 -0.61645 -0.0019355 -0.8656
surrounded 0.84601 0.54011 0.21031 -0.15261 0.82325 -0.62689 -0.48327 0.31709 -0.57879 -1.1224 -0.48432 -1.0493 0.36662 -0.062903 -0.3633 0.44064 0.44633 0.54464 -0.23135 -0.63582 -0.37369 0.54782 -0.10708 -0.0013692 -0.36981 -0.64507 -0.17681 1.3487 0.34467 -0.23732 2.2264 -0.60021 0.29082 -0.41264 -0.19573 1.0674 -0.25512 -0.25352 -0.40603 0.10769 0.067778 0.30106 -0.063334 0.24247 0.49987 -0.62767 -0.6158 -1.3555 -0.3977 -1.390
short 0.08226 0.52026 -0.13314 -0.78449 -0.2366 0.58779 -0.4191 -0.39373 0.054773 0.012971 -0.62161 0.23175 -0.43722 0.499 0.39791 -0.28424 -0.051524 -0.32952 -0.88485 -0.35463 0.20174 -0.1279 0.61101 -0.31412 0.40172 -1.2991 -0.072569 0.61494 0.21407 0.032626 3.4835 -0.11963 0.45864 0.47906 0.22729 0.022899 0.22242 0.53241 -0.86963 -0.45325 -0.19527 0.35825 -0.08619 -0.0019633 -0.40885 -0.43347 0.66171 -0.022696 -0.34519 0.2650
hose -0.10305 -0.33867 0.68605 -0.46678 -0.95199 0.22982 0.58152 -0.0026854 0.037034 -0.5607 -0.1001 0.43859 -0.16168 0.40362 -1.43 0.59469 -0.38552 1.1328 -0.23056 -1.4324 0.65919 -0.5103 0.2377 -0.53712 -0.24393 -0.81479 0.37874 1.3415 1.256 -0.34122 0.71988 0.095876 -0.43318 0.65355 -0.2902 0.76583 0.37309 0.28208 0.94704 0.15148 0.87374 -0.27946 -0.62407 0.68485 0.66278 -0.4186 0.36983 -1.0978 0.61545 -0.08587
clear 0.60506 0.18191 0.16394 -0.17322 0.39003 0.14191 -0.18749 0.22792 -0.13433 -0.039739 -0.29248 -0.11435 -0.61228 -0.11084 -0.086806 0.43197 0.46269 -0.91279 0.0032686 -0.87722 -0.43656 0.4111 0.30053 -0.471 0.48141 -1.6452 -0.0087763 1.0281 0.61239 -0.057788 3.166 -0.069298 -0.67973 -0.75351 -0.038444 -0.42413 0.17885 0.28132 -0.38948 -0.27017 0.22063 -0.018678 0.18915 0.1661 -0.20282 0.10659 -0.30766 0.7015 0.42221 -0.3502
it 0.61183 -0.22072 -0.10898 -0.052967 0.50804 0.34684 -0.33558 -0.19152 -0.035865 0.1051 0.07935 0.2449 -0.4373 -0.33344 0.57479 0.69052 0.29713 0.090669 -0.54992 -0.46176 0.10113 -0.02024 0.28479 0.043512 0.45735 -2.0466 -0.58084 0.61797 0.6518 -0.58263 4.0786 -0.2542 -0.14649 -0.34321 -0.25437 -0.44677 0.12657 0.28134 0.13331 -0.36974 0.050059 -0.10058 -0.017907 0.11142 -0.71798 0.491 -0.099974 -0.043688 -0.097922 0.1680
platform 0.098851 0.59935 1.0168 0.72483 -0.24534 0.20306 -0.46785 -1.2689 0.29747 -0.062728 -0.21183 -0.30493 -0.20452 0.85655 -1.3103 0.030989 -0.093103 0.70541 0.16624 -0.84804 0.31641 -0.16909 -0.62288 0.035483 0.49894 -0.63076 0.68848 0.32431 -0.18392 -0.085155 2.8517 -0.18436 -0.90013 -0.16993 -0.57414 -0.38403 0.31566 0.12175 -1.2881 -0.51956 0.44713 -1.2054 -0.5704 0.30348 -0.1844 -0.2149 -0.10204 -0.71244 0.72361 -0.4141
things 0.22678 -0.14627 -0.34042 -0.39456 0.72194 -0.14548 -0.40267 -0.1647 -0.62927 0.35451 -0.57827 0.83488 -0.89982 -0.032669 1.1455 0.59324 0.50642 -0.082951 0.49207 -1.1169 -0.063833 0.5827 0.60461 0.19144 1.1256 -1.5186 -1.1558 0.36884 1.5009 -0.9557 3.2162 0.71336 -0.17653 -0.64164 -0.18563 0.19992 -0.34019 0.53515 0.13862 -0.099263 -0.59026 0.10021 0.17771 0.71645 0.19723 0.39284 0.24215 0.082052 0.045228 0.6331
picked -0.20946 -0.40972 0.62346 0.073657 0.7619 -0.18778 -1.5682 0.3452 -0.1992 -0.24874 0.041961 -0.099418 -0.24076 0.45551 0.41567 -0.29722 -0.080473 -0.32369 -0.86635 -0.71836 -0.21199 0.28985 0.71728 -0.17367 0.31167 -1.2208 0.3255 0.27013 -0.22934 -0.59079 2.0618 0.38959 0.11178 -0.12907 0.36274 0.18258 -0.034305 0.58512 -0.013268 -0.50994 -0.16823 0.51316 -0.29466 -0.16949 0.22376 -0.04399 -0.24664 -0.11951 0.19725 -0.2674
preparing 0.925 -0.5368 -0.15041 -0.25802 0.11398 -0.49877 -0.46122 0.67708 0.23242 -0.35646 -0.48614 -0.23736 -0.051322 0.38366 0.518 0.0067935 0.038609 -0.04989 -0.066046 -0.2976 0.99158 0.16022 0.1277 -0.11619 -0.10811 -1.4058 0.16585 -0.44563 0.17074 -0.30417 2.2468 0.52454 -1.3898 -0.36362 0.081736 0.51668 0.087382 0.35444 -0.44295 -0.37632 -0.28935 -0.35164 0.28337 -0.34325 0.78966 0.26706 0.026186 0.6495 -0.19279 0.1755
setting 0.071259 0.089283 -0.39261 -0.12705 0.34286 -0.12117 -0.24327 -0.44901 0.042037 0.094056 -0.68532 -0.4699 -0.26855 0.52461 0.25228 -0.022888 0.44001 -0.29808 -0.27797 -0.65698 0.74065 0.27716 -0.81052 -0.1264 0.068643 -0.86396 0.030143 0.15662 0.50122 0.13577 3.0481 -0.083378 -0.53288 -0.46797 0.096149 0.5333 0.29114 0.080324 -0.55195 -0.086762 -0.45632 -0.27947 0.21391 0.27905 -0.10304 0.28576 0.47967 0.14746 0.26654 -0.2712
gentle 0.13119 0.4349 -1.208 -0.89292 0.29285 0.24003 0.34387 0.29356 -0.24239 0.91869 -0.65248 0.32779 1.024 0.11373 -0.98324 -0.036959 0.36983 0.17845 -0.41456 -0.9938 -0.5709 1.4421 0.022227 -0.39523 1.5407 -0.42815 -0.17577 0.97536 0.79553 0.52302 2.0521 -0.17319 0.13591 0.51054 -0.025097 -0.19238 -0.82423 -0.26551 0.079851 -0.78053 0.30259 0.46857 -0.43513 0.43552 0.61826 -0.31382 1.0742 -0.80905 0.1406 0.3525
broken 0.1009 -0.067992 -0.0019462 -0.1563 -0.09369 1.1356 -0.26643 0.55405 0.057566 -0.54256 0.063964 0.046163 -1.2692 0.61562 0.18401 0.33107 -0.55301 -0.37896 0.057747 -0.39808 -0.40532 0.39531 0.094998 -0.40132 0.21415 -1.2367 -0.0082855 0.95401 0.92565 -0.38884 2.8945 -0.37103 0.34237 0.34982 -0.55795 0.83896 0.61844 -0.11035 0.56982 -0.021813 -0.35694 -0.54057 -0.24844 0.37804 0.15459 0.28231 -0.015418 -0.82755 -0.43148 -1.292
stopping 0.16521 -0.31236 0.2021 -0.27912 -0.33512 0.069433 -0.10997 0.39335 0.66323 0.35719 -0.13639 -0.35753 -0.77494 -0.10645 0.026443 -0.25344 0.38525 -0.30421 -0.43461 -0.2874 0.075619 0.073185 -0.012836 0.25603 0.2917 -1.2751 0.90869 0.12513 1.5904 -0.47849 1.9799 0.66903 -0.54589 -0.43572 -0.17511 0.14175 0.23686 0.098369 -0.54039 0.75475 -0.054084 -0.062957 0.15166 -0.10111 0.24564 -0.43037 0.14218 -0.14283 0.22785 -0.03962
of 0.70853 0.57088 -0.4716 0.18048 0.54449 0.72603 0.18157 -0.52393 0.10381 -0.17566 0.078852 -0.36216 -0.11829 -0.83336 0.11917 -0.16605 0.061555 -0.012719 -0.56623 0.013616 0.22851 -0.14396 -0.067549 -0.38157 -0.23698 -1.7037 -0.86692 -0.26704 -0.2589 0.1767 3.8676 -0.1613 -0.13273 -0.68881 0.18444 0.0052464 -0.33874 -0.078956 0.24185 0.36576 -0.34727 0.28483 0.075693 -0.062178 -0.38988 0.22902 -0.21617 -0.22562 -0.093918 -0.8037
hit -0.41659 -0.47596 0.95744 0.27019 0.17657 0.24828 -1.2987 0.53851 0.35336 0.58221 -0.33079 -0.5968 -0.97055 0.72084 0.49463 -0.83398 0.12236 -0.37237 -1.4546 0.41384 -0.36311 0.2202 0.057482 -0.24951 0.37654 -1.3061 0.22596 0.4751 1.286 -0.62643 3.4058 0.18436 1.2656 1.0741 0.3026 0.31395 0.33683 -0.31895 0.31912 0.37919 -1.1652 0.94625 -0.044854 -1.0779 -0.16669 0.11604 -0.11983 -0.23663 0.29088 0.1107
covering -0.34962 0.49667 -0.28005 0.14015 -0.27406 0.45069 -0.18031 -0.94061 0.71865 -0.92958 -0.30044 -0.83044 0.12159 0.12686 0.37362 -0.20246 -0.20929 0.002616 -0.022896 -0.15393 0.52194 0.32411 0.37983 -0.271 -0.65731 -0.42166 0.10125 0.56449 0.017512 -0.29849 2.9174 -0.27469 0.39591 -0.22728 -0.72356 0.66352 -0.0012403 0.035082 -0.078827 0.21597 -0.066137 -0.0312 0.88237 0.56122 -0.59429 -0.32455 0.04196 -0.02376 -0.58802 -0.644
tall -0.29795 1.6047 0.65784 -0.70614 1.331 0.33365 0.23685 -1.4812 -0.60511 -0.27616 -0.8087 -0.47017 0.54773 0.67308 -0.18642 -0.02795 0.6932 1.132 -0.91967 -0.74656 -1.5234 -0.02718 -0.43476 -0.58002 0.425 -0.61237 0.67993 1.3435 0.12867 0.05925 2.2013 -0.70091 0.52313 0.83591 0.19223 0.53298 0.24317 0.39889 -0.26113 -0.71878 -0.17139 0.026581 0.60812 0.45731 0.65118 0.024623 0.13008 -1.6474 -0.2626 -0.554
strip 0.41561 -0.23527 0.11345 0.022989 -0.23363 0.31338 -0.62994 -0.032695 0.26569 -0.47449 -0.74678 -1.2627 -0.13588 0.35624 0.13751 0.97878 0.90486 -0.60039 -0.16166 0.67123 0.68938 0.58721 -0.15656 0.34529 -1.0427 -0.78406 -0.27742 0.74352 1.2017 0.0071385 2.5421 -0.73254 -0.69115 0.51891 -0.12389 0.84333 0.50507 -0.92537 -0.8513 0.44523 -0.038446 0.73802 -0.23063 -0.44821 -0.11396 -0.81556 -0.3548 -0.46386 -0.38961 -0.2351
during 0.29784 -0.018422 -0.71891 -0.4651 -0.45661 -0.0042153 -0.74598 0.34662 -0.51781 -0.5877 0.18398 -0.36903 -0.52225 -0.14082 0.83446 -0.26962 -0.89364 -0.11813 -1.3076 0.475 0.52815 -0.021974 0.61869 -0.65362 -0.14298 -1.6466 -0.05305 -0.17046 0.17048 0.75756 3.5832 0.13775 -0.37811 -0.48736 0.0069906 0.59913 0.31404 0.30734 -0.42397 0.35383 -0.97151 0.16082 -0.63666 -0.20449 -0.070846 -0.32219 -0.049254 -0.41865 -0.6899 -0.5490
room 0.51518 0.80125 -0.13731 -0.472 1.0321 -0.75538 -0.58585 -0.10406 -0.22021 -0.38029 -0.82568 -0.1288 -0.059862 0.8529 0.54697 0.43243 -0.54769 0.35936 -0.14251 -1.2086 0.72885 1.0991 -0.34049 0.014483 -0.20405 -0.98005 -0.07667 1.0827 0.34461 -0.37714 2.8916 0.23911 -0.091089 -0.45495 0.24013 0.92777 0.77564 0.37424 0.84257 -0.34445 0.049718 0.27486 -0.35371 1.0032 0.081324 0.25981 0.17708 -1.1572 -0.080012 0.0821
taken 0.89173 -0.20309 -0.070216 -0.59429 0.35246 -0.11412 -0.48702 0.44325 0.22071 -0.20085 0.20269 -0.057646 -0.3154 -0.1996 0.41387 0.24245 -0.16135 -0.51214 -0.42707 -0.29396 0.069218 0.52691 0.40494 -0.1844 -0.042019 -1.7872 -0.34064 -0.0023479 0.14808 -0.23022 3.1435 -0.037137 -0.42791 -0.67301 0.31477 0.26581 0.62014 0.18906 -0.17701 -0.0095113 -0.11139 -0.0080193 0.28246 0.087916 0.18167 -0.34941 -0.40559 -0.067306 0.22593 -0.3910
young -0.3874 0.79979 0.008999 -1.0586 0.84764 0.48831 -1.2072 -0.041094 -0.77811 0.22285 0.14036 0.30871 0.056524 0.38498 0.35064 -0.61762 0.57805 0.37778 -0.38288 -0.059694 -0.69362 1.0951 0.29218 0.72216 0.45157 -1.7643 -0.36862 -0.99758 -0.32863 -0.3417 2.7919 0.59432 0.14142 -0.47239 0.40147 0.34521 -0.43788 0.04117 -0.0063478 -0.71631 -0.40433 0.36837 0.19039 -0.011441 1.338 -0.63506 -0.39155 -1.0359 -0.14267 0.2974
